%YAML:1.0
---
myHogDector1: !!opencv-object-detector-hog
   winSize: [ 64, 128 ]
   blockSize: [ 16, 16 ]
   blockStride: [ 8, 8 ]
   cellSize: [ 8, 8 ]
   nbins: 9
   derivAperture: 1
   winSigma: 4.
   histogramNormType: 0
   L2HysThreshold: 2.0000000000000001e-01
   gammaCorrection: 1
   nlevels: 64
   signedGradient: 0
   SVMDetector: [ 4.22232412e-03, 3.52652334e-02, 1.09557426e-02,
       2.28704177e-02, 8.35178792e-03, -8.89864843e-03, 6.85670367e-03,
       7.94788543e-03, 3.70464451e-03, 2.04639342e-02, 2.09560730e-02,
       -1.05403764e-02, -6.46725623e-03, 1.72940623e-02, -2.08595768e-02,
       8.30969494e-03, -9.32960596e-04, 1.19799906e-02, -5.81728248e-03,
       4.13850462e-03, -5.14359865e-03, 2.27721371e-02, 3.74005013e-03,
       2.87732519e-02, -5.72141027e-03, 8.22609570e-03, -6.58531487e-03,
       2.88151810e-03, -4.09745262e-05, -2.15507876e-02, 4.72744228e-03,
       -6.33387594e-03, -4.13284171e-03, -8.76836386e-03, 7.46201677e-03,
       -6.15647249e-03, 1.49901556e-02, 5.75931836e-03, -8.71018693e-03,
       8.79084319e-03, -5.67624439e-03, -1.58681087e-02, 1.15521634e-02,
       -1.85961239e-02, 7.84977805e-03, -1.88682973e-03, 6.31495612e-03,
       -6.37951586e-03, 1.66778751e-02, 1.17775397e-02, 1.45445978e-02,
       2.64166947e-03, -2.86220964e-02, -5.04081743e-03, 1.08868340e-02,
       9.23276041e-03, -8.93602613e-03, 3.15310154e-03, 2.11472227e-03,
       -1.05410069e-02, -5.74957160e-03, -1.24933943e-02, 1.17957238e-02,
       -1.24944635e-02, -1.83344167e-03, 1.80454683e-02, 2.82639405e-04,
       3.54013592e-03, 2.03604922e-02, -3.05631268e-03, -8.26421194e-04,
       6.13797083e-03, -2.14671483e-04, 7.61149172e-03, -2.82796216e-03,
       -1.41025111e-02, 1.23319700e-02, -1.36390692e-02, -1.33216754e-02,
       -1.20508224e-02, -2.25203373e-02, 3.02142301e-03, 2.57576862e-03,
       -9.12731793e-03, -2.39365231e-02, -7.70617323e-03, 7.18602492e-03,
       -1.22504486e-02, 2.92862160e-03, 7.15968339e-03, -4.86390060e-03,
       -4.90464969e-03, 1.74168474e-03, -8.88794137e-04, -4.12785448e-03,
       -1.01354355e-02, 5.31073380e-03, 1.60900354e-02, -1.30498167e-02,
       6.43702038e-03, 3.23217828e-04, 7.79130147e-04, 8.35434534e-03,
       -1.18847480e-02, 2.48558749e-03, -6.76734746e-03, 1.38117131e-02,
       -5.01431152e-03, 5.57783805e-03, 9.32144932e-03, -3.46925226e-03,
       3.46700964e-03, 1.80318684e-03, 5.45972260e-03, -6.15516584e-03,
       -3.95268388e-03, 3.69916949e-03, 1.02630584e-03, 9.81484447e-03,
       -8.22186470e-03, 2.23661475e-02, -1.01851113e-02, 6.21961476e-03,
       2.16457825e-02, 1.21061550e-03, -5.29424148e-03, 2.44761934e-03,
       -1.23267237e-03, -4.04319912e-03, 1.54786492e-02, 1.31811043e-02,
       1.88676249e-02, -6.60256576e-03, 3.73056089e-03, -1.37334364e-02,
       6.37036096e-03, 4.00696881e-03, -8.75344966e-03, 6.15591602e-03,
       9.98882391e-03, 1.90530941e-02, 1.81396063e-02, 1.93376876e-02,
       2.61260604e-04, -5.29604824e-03, 6.53395569e-03, -5.93239907e-03,
       6.75153872e-03, -1.45604452e-02, -7.94187840e-03, 4.00317134e-03,
       1.80893671e-03, 1.86279241e-03, -1.95393036e-03, -2.33040005e-03,
       -1.08895516e-02, -1.38885193e-02, 5.68268960e-03, 1.20982109e-02,
       -3.09606502e-03, 1.26627339e-02, -1.06023985e-03, -1.63579255e-03,
       9.47533734e-03, 7.47454306e-03, 1.06800580e-02, -4.16261982e-03,
       2.39753909e-03, 9.73604899e-03, -6.45367568e-03, -8.18910729e-03,
       -6.57036342e-03, -9.22087580e-03, 4.42030840e-03, 3.00339796e-03,
       7.55350245e-03, 2.45837308e-03, -1.69489868e-02, -7.84784369e-03,
       2.59256307e-02, 3.59816011e-03, 9.16561019e-03, -7.94646703e-03,
       -1.05555505e-02, 1.89496041e-03, -3.93887516e-03, 1.31687243e-03,
       1.59327276e-02, -9.15810931e-03, 1.53496442e-02, 8.47277325e-03,
       -1.48269860e-03, -3.71055321e-05, 9.99896694e-03, 4.52490384e-03,
       1.96111612e-02, 1.63209927e-03, -6.97612297e-03, -4.67106234e-03,
       -8.80130567e-04, -8.44699610e-03, -1.70167498e-02,
       -2.97351135e-03, -6.33204402e-03, -5.69927227e-03,
       -7.03611877e-03, 2.28069280e-03, 2.80925399e-03, 1.56435501e-02,
       -7.78599596e-03, -2.46693380e-03, 5.94904926e-03, 1.49790263e-02,
       9.65755340e-03, -1.27643032e-03, -1.22365635e-02, 1.00092012e-02,
       9.17094201e-03, 3.19514726e-03, 2.86954129e-03, -2.72827931e-02,
       -4.03684273e-04, -1.97402042e-04, -4.39337641e-03,
       -1.62281338e-02, -2.30499022e-02, -2.32052729e-02,
       -2.34304089e-03, 5.49029000e-03, 1.75693203e-02, -1.37246400e-02,
       9.80041572e-04, 2.43124412e-03, -6.99749077e-03, 1.01753892e-02,
       1.57762729e-02, 1.33384494e-02, 1.87008213e-02, -1.24066714e-02,
       7.52823474e-03, 4.86436905e-03, -1.21811824e-03, -1.94971031e-03,
       -1.31055359e-02, 6.44564815e-03, 8.23458191e-03, 1.41622806e-02,
       1.54027408e-02, 8.54209438e-03, 1.84565168e-02, 2.49446346e-03,
       -2.06368836e-03, -6.62142085e-03, -2.98658572e-02, 3.47242248e-03,
       -2.09415378e-03, -1.11848814e-02, -2.32906528e-02, 6.68212259e-03,
       1.44211752e-02, 1.62614789e-02, -5.27857011e-03, 2.32635438e-03,
       1.57834180e-02, 1.76950416e-03, -3.94027960e-03, -7.07759941e-03,
       8.87500402e-03, 1.00293718e-02, -7.50976941e-03, -3.92316747e-03,
       -3.66735994e-03, -1.20153232e-03, 4.03577788e-03, 1.12675391e-02,
       -8.89971294e-03, -2.28419993e-03, 1.46201076e-02, 1.52423894e-02,
       1.22429780e-03, -2.18350231e-03, 6.78091636e-03, 7.83486478e-03,
       1.88216791e-02, 9.03873239e-03, 7.69613264e-03, 5.85801015e-03,
       4.02838923e-03, 7.27661280e-03, 1.81946401e-02, 6.53141923e-03,
       5.14032552e-04, -4.35361313e-03, -4.68755513e-03, 8.24893732e-03,
       3.34001333e-03, -1.54579142e-02, 1.90694537e-03, 1.01672104e-02,
       -3.24381702e-03, -7.13534513e-03, 2.18951958e-03, 2.81071551e-02,
       2.52600003e-04, 3.65068670e-03, 1.38421385e-02, -6.56785723e-03,
       3.86538031e-03, 2.53004767e-03, 1.02636805e-02, 3.46196396e-03,
       1.07039604e-02, -2.72854278e-03, -1.42013915e-02, -3.98975564e-03,
       -7.49120675e-03, -4.80001047e-03, 8.93702637e-03, 1.71879381e-02,
       1.35612609e-02, 1.83948744e-02, -1.86181394e-04, -1.92295364e-03,
       1.01060187e-02, 6.07192190e-03, 1.49504272e-02, -6.52776053e-03,
       -1.08546270e-02, -2.33796872e-02, -1.37274815e-02,
       -3.49281803e-02, 1.09796692e-02, 1.64317079e-02, -8.52156430e-03,
       1.30710443e-02, -1.57932634e-03, -1.36731323e-02, 7.78689887e-03,
       1.13786841e-02, -1.58636260e-03, 1.19269895e-03, 1.68392749e-03,
       -3.34165758e-03, -5.49078919e-03, -8.80413316e-03, 3.92511953e-03,
       -6.43278612e-03, 1.66298430e-02, -3.88122513e-03, -5.15258219e-03,
       1.97317917e-03, -3.32678878e-03, 1.64714979e-03, -3.12100886e-03,
       1.15239061e-02, 4.56093205e-03, 1.35849118e-02, 1.21372305e-02,
       -4.61933902e-03, -2.15318729e-03, 5.96228009e-03, 1.58783924e-02,
       1.28872935e-02, -6.74917921e-03, -1.62584055e-02, 2.48711910e-02,
       1.41798388e-02, 6.69685286e-03, 2.94999988e-03, -1.19878920e-02,
       -9.03992821e-03, 3.79039557e-03, 9.60812252e-03, -7.15948129e-03,
       -8.23533628e-04, 8.26781429e-03, 3.27250827e-03, -2.32814401e-02,
       5.48383733e-03, 1.15344003e-02, 4.76116035e-03, -1.22028561e-02,
       -2.85062264e-03, 3.16692935e-03, 7.81732239e-03, 1.15269637e-02,
       4.44476539e-03, -1.66936382e-03, -8.70075915e-03, 4.62384848e-03,
       1.01060083e-03, 1.05060237e-02, 3.52668436e-03, -2.24296135e-04,
       9.00552049e-03, -1.15627358e-02, -1.24101685e-02, -2.15256284e-03,
       7.20146019e-03, -3.45989538e-04, -1.14862304e-02, -1.69902332e-02,
       1.22925884e-03, -2.08052807e-03, -1.63575988e-02, 2.59941560e-03,
       2.31723752e-04, 1.05851553e-02, 8.47310200e-03, -1.34637337e-02,
       3.38868285e-03, 2.01848689e-02, -5.50931878e-03, -1.14598370e-03,
       -1.68050062e-02, 5.77798299e-03, 7.98845664e-03, -2.06522569e-02,
       -7.80422706e-03, -7.32829329e-03, 1.43256057e-02, 4.38357238e-03,
       -2.91678216e-03, -2.19443417e-03, 1.02474047e-02, 1.36127779e-02,
       -5.74358413e-03, 1.76022691e-03, 4.39701229e-03, 1.32664451e-02,
       5.46785654e-04, 6.86946791e-03, -5.42867975e-03, -1.32786520e-02,
       -9.16513242e-03, -1.40620433e-02, 4.46676655e-04, 1.78017970e-02,
       7.66694965e-03, -1.28410733e-03, 3.58528504e-03, -6.57249894e-03,
       -9.40538011e-03, 2.58489279e-03, 2.59075267e-03, 1.16748763e-02,
       -8.44957132e-04, -2.18697800e-03, 1.09274304e-02, -4.78497706e-03,
       -5.82613284e-03, -3.83731094e-03, 5.84475091e-03, -4.02156310e-03,
       -1.84053916e-03, 8.21346231e-03, -8.40985507e-04, -1.19300922e-02,
       2.50742049e-03, -1.05936853e-02, -2.54356116e-03, 6.26486435e-04,
       1.57505056e-04, 5.52765699e-03, 3.18999449e-03, -1.58193579e-03,
       3.21891438e-03, 1.50355911e-02, 7.81052466e-03, -7.78040802e-03,
       3.88807408e-03, -2.17658048e-03, -6.00948371e-03, 9.34416987e-03,
       -1.70283541e-02, 9.62030329e-03, 1.99784688e-03, 5.50612295e-03,
       3.16457590e-03, 4.33365628e-03, -6.61825854e-03, 6.82484312e-03,
       1.29970768e-02, 7.09273340e-03, -1.69790431e-03, -4.17000102e-03,
       1.19124046e-02, 5.79933822e-03, -7.56871514e-03, -6.50443370e-03,
       -8.80480278e-03, -5.03983640e-04, -1.11227976e-02,
       -6.42290898e-03, -7.64029173e-05, 9.98773903e-05, 1.74318776e-02,
       -1.59425586e-02, -1.62171095e-03, 3.23914783e-03, 1.41658513e-02,
       -8.13026819e-03, -7.31607573e-03, 8.23964307e-04, 7.97245465e-03,
       9.57962498e-03, -3.80420848e-03, 9.04825050e-03, -2.69413600e-03,
       1.60417855e-02, 7.86842220e-03, 5.23348944e-03, 1.17576644e-02,
       1.15766525e-02, 3.44269699e-03, -9.97153670e-03, -9.63342004e-03,
       6.43408857e-04, -1.80978943e-02, 3.79972812e-03, -1.64010294e-03,
       -1.63141196e-03, 2.39772047e-03, -2.47122557e-03, -5.80280740e-03,
       2.33395826e-02, -7.50887720e-03, 2.41825003e-02, 1.09729003e-02,
       9.30489972e-03, 6.37081545e-03, 1.40088694e-02, -3.16697429e-03,
       1.23014599e-02, 1.55372387e-02, -1.88955525e-03, -1.90713734e-03,
       1.20076062e-02, 9.09087341e-03, -5.59492782e-03, -1.71942879e-02,
       -1.76414289e-03, -9.96579882e-03, 9.83848609e-03, -1.42973056e-02,
       1.71198267e-02, -5.66713931e-03, 5.46557643e-03, 3.63634690e-03,
       -2.20355112e-04, 9.44416318e-03, -1.98694468e-02, 1.98251847e-03,
       -2.42855004e-03, -5.54373162e-03, -7.70747149e-03, 2.89905770e-03,
       1.01767026e-03, -6.65835617e-03, -6.23039715e-03, -1.34091114e-03,
       1.36617403e-02, 5.02001820e-03, 4.78529744e-03, -3.01104095e-02,
       1.75295863e-03, -6.69682864e-03, 1.26594450e-05, 2.18991583e-04,
       4.18987917e-03, 3.02933995e-02, 5.80860116e-03, 5.17731905e-03,
       -6.61846111e-03, 6.68488070e-03, -2.01657694e-03, 1.19019281e-02,
       1.68409459e-02, -9.09156073e-03, -1.33229559e-02, 2.81991297e-03,
       8.14899523e-03, -4.89983987e-03, -1.48227047e-02, 6.89905137e-03,
       -1.17868669e-02, 1.31522855e-02, 1.58451386e-02, 9.11660027e-03,
       1.21392263e-02, 1.86355673e-02, -1.08269081e-02, 1.02592027e-03,
       7.12545775e-03, 1.81786381e-02, 1.23525774e-02, -1.39602954e-02,
       9.27225163e-04, -1.04245124e-03, 7.31121656e-03, -1.79494987e-03,
       -5.45538217e-03, 5.06383542e-04, 1.54525964e-02, 2.13560611e-02,
       -3.47930659e-03, 2.28934269e-02, 3.42787709e-03, 2.89082285e-02,
       2.15786765e-03, -3.19374679e-03, -1.23090565e-03, -1.65975187e-02,
       -4.69897129e-03, -1.44512299e-02, -7.13609485e-03, 1.99045008e-03,
       -3.61784641e-03, -1.77088100e-02, 7.69850612e-03, -3.20567284e-03,
       2.66459741e-04, -2.16301240e-04, -8.62361584e-03, 1.87959392e-02,
       6.48375833e-03, -5.40403090e-03, 7.88050517e-03, 1.14963884e-02,
       -1.64894189e-03, -4.81660338e-03, 9.17703961e-04, -1.57139786e-02,
       -5.46390191e-03, -3.27834627e-03, -7.31054880e-03,
       -2.40331348e-02, 8.64947506e-04, -5.20919973e-04, -9.07735247e-03,
       -2.77239573e-03, 3.18492576e-03, 1.36352023e-02, -4.89598978e-03,
       -7.13636540e-03, -8.32016021e-03, 1.27824070e-03, -2.59456132e-03,
       -5.88446017e-03, 2.85325572e-03, -9.10264999e-03, 8.04081280e-03,
       -1.03896586e-02, 3.38359131e-03, -1.16106560e-02, 5.78057952e-03,
       -1.20914653e-02, 3.51652899e-03, 4.00500419e-03, -2.30421349e-02,
       -1.39221223e-02, 2.56804028e-03, 3.70318536e-03, 8.54664575e-03,
       1.73073094e-02, 9.21169110e-03, -1.05841123e-02, 1.26753766e-02,
       -1.54457300e-03, 1.29158739e-02, 4.55294177e-03, 8.94138496e-03,
       2.29908200e-03, -7.39194825e-03, -1.68607663e-03, -1.10211386e-03,
       2.41236649e-02, 1.32843619e-03, -1.85128313e-03, 1.43935475e-02,
       1.85277816e-02, -3.03730299e-03, -3.34651652e-03, 6.54595252e-03,
       -4.27113753e-03, -3.23958462e-03, 4.37570829e-03, 1.70981174e-03,
       2.29217135e-03, -6.74005644e-03, 1.50358807e-02, -7.91325141e-03,
       -5.41515328e-05, -1.15075298e-02, -1.53851416e-02,
       -3.79727734e-03, -6.58139354e-03, 5.36906533e-03, -6.40320452e-03,
       3.93758342e-03, -2.01826673e-02, -1.59027439e-03, -3.84709012e-04,
       5.81363402e-03, 5.38642984e-03, -2.37149023e-03, 4.19566315e-03,
       -8.67448468e-03, 9.96825635e-04, -1.45573579e-02, 1.42163401e-02,
       -7.37304427e-03, -4.06910526e-03, 6.38439925e-03, 1.08154118e-02,
       1.46673741e-02, 1.08398888e-02, 9.11070593e-03, -2.60616541e-02,
       5.43752173e-03, -2.31351325e-04, 1.33081526e-03, 3.61178815e-03,
       -1.17241815e-02, -1.34652192e-02, -1.72133967e-02, 5.09885198e-04,
       5.95027301e-03, 2.61246669e-03, -3.31135746e-03, 3.63441953e-03,
       -3.19868489e-03, -1.64376982e-02, 5.95147628e-03, 1.65090021e-02,
       7.47752748e-03, 8.56533367e-03, 1.01777203e-02, 1.14251638e-03,
       -2.62798206e-03, 2.81442609e-03, 1.01589225e-02, 7.88526703e-03,
       1.54116480e-02, -1.91456682e-04, 1.88665511e-03, 3.26149375e-03,
       -1.35046104e-02, -1.48464609e-02, -7.16126582e-04,
       -2.28958740e-03, 2.66415365e-02, 2.56006606e-02, 6.74725790e-03,
       3.08125895e-02, 5.17377816e-03, 1.41176721e-03, 2.02682652e-02,
       9.95023642e-03, -7.63747003e-03, -3.46398503e-02, 6.10649679e-03,
       -1.88833177e-02, -1.76886600e-02, 3.09464033e-03, -9.03509837e-03,
       -7.17207324e-03, 7.08448570e-05, 1.26151508e-02, -2.18415353e-02,
       -5.83318667e-03, -1.61717049e-04, -9.90688615e-03,
       -7.40288198e-03, -1.46260043e-03, 1.54806301e-03, -6.31733704e-03,
       -7.67598161e-03, -8.89145117e-03, 1.56878214e-02, -3.80878965e-03,
       -4.84597031e-03, -1.18636042e-02, -1.09842897e-03,
       -1.37920363e-03, -1.91485020e-03, 2.21027452e-02, 2.65178899e-03,
       -1.13392528e-03, 3.78899183e-03, -9.56711546e-03, -7.14882789e-03,
       9.04006884e-03, -2.46098288e-03, -5.81783056e-03, 5.16566029e-03,
       4.40325675e-04, 2.76151951e-03, -1.41728530e-02, 1.10461889e-02,
       5.59264654e-03, -1.09141367e-02, 6.45119138e-03, -2.09163176e-03,
       -3.40784620e-03, 6.46010833e-03, 7.76818627e-03, -2.27323733e-02,
       -5.71008166e-03, -2.30577937e-03, 8.52323323e-03, -5.04649244e-03,
       -9.35178157e-03, 7.69258663e-03, -9.74216778e-03, -6.78107841e-03,
       -1.12263877e-02, 1.44286016e-02, 3.09589831e-03, -2.15106197e-02,
       -5.42541267e-03, -3.22022801e-03, -9.83338431e-03,
       -1.73327662e-02, 1.64616127e-02, -1.77086778e-02, 8.53395648e-03,
       7.39959592e-04, -1.57446284e-02, 6.44794491e-04, 8.53758713e-04,
       7.17693474e-03, -1.36380726e-02, -9.84459743e-03, -1.61063764e-02,
       -1.60498321e-02, 5.84242007e-05, 1.67230517e-02, 1.49270316e-04,
       3.98468022e-04, 5.66789275e-03, -2.55761715e-03, 1.76861917e-03,
       -7.33297458e-03, -1.96212567e-02, -1.42833602e-03, 1.02267861e-02,
       1.23246228e-02, -1.52877450e-03, -8.85819923e-03, 1.18262488e-02,
       1.23740649e-02, -1.35391252e-02, 2.03181710e-03, -1.40555610e-03,
       2.35796534e-02, 3.58767691e-03, 8.40865262e-03, -2.34354939e-03,
       8.82854499e-03, 8.24414659e-03, 4.60558711e-03, -1.58952770e-03,
       -1.41863236e-02, 1.97696611e-02, 4.57443716e-03, -1.29174152e-02,
       7.38054607e-03, -8.93446989e-03, -4.75189299e-04, 1.07347332e-02,
       -4.77226311e-03, -7.74736470e-03, 3.37205944e-03, -3.06998030e-03,
       -1.40168425e-02, 2.29877792e-03, -9.69792309e-04, 4.72755637e-03,
       8.95796902e-03, -3.09178163e-03, -3.35469679e-03, 7.81233702e-03,
       5.43102110e-03, -7.80184427e-03, -1.02443695e-02, 1.23141957e-02,
       -1.88332237e-02, -1.63561990e-03, 6.95195049e-04, 6.54863473e-03,
       -2.27874741e-02, 5.96827641e-03, -2.19800454e-02, -1.07486350e-02,
       1.63848754e-02, 7.93257076e-03, -1.75997475e-03, 5.98214217e-04,
       -2.01856415e-03, 9.75138508e-03, 1.73364265e-03, 2.75844592e-03,
       -4.31178277e-03, -5.86232264e-03, -1.75129604e-02,
       -2.81618312e-02, 9.30307060e-03, 7.53652677e-03, 1.17885787e-02,
       -1.87290588e-03, 1.31241977e-03, 9.61814448e-03, -8.80916137e-03,
       -1.46256853e-02, -2.28092670e-02, 1.79018173e-03, 5.36685484e-03,
       -3.74083850e-03, 1.66414753e-02, -1.89816317e-04, -6.78838324e-03,
       -4.23485087e-03, -5.46631543e-03, -2.41153017e-02,
       -1.09328572e-02, -1.53127052e-02, -1.62009371e-03,
       -5.21261850e-03, -4.86237975e-03, 1.10781817e-02, 2.72706663e-03,
       1.08496118e-02, -4.89457091e-03, -1.01060644e-02, 1.85846129e-05,
       -1.23725235e-02, 2.25744303e-03, 2.36554770e-03, -8.53529293e-03,
       -1.64304264e-02, -5.94151672e-03, -1.25212269e-02,
       -1.92285310e-02, -1.59443170e-02, -6.07591216e-03, 3.01690097e-03,
       5.91447484e-03, -3.08422348e-03, -5.91534609e-03, -9.54605918e-03,
       -1.45549960e-02, -6.77726511e-03, -7.02542579e-03,
       -1.27106393e-02, -9.59723257e-03, -9.57352575e-03,
       -5.30706113e-03, -1.18296291e-03, 1.19265951e-02, -9.52840550e-04,
       -6.18859148e-03, 2.14173156e-03, -2.11390443e-02, 4.70920280e-03,
       -3.45002161e-04, 1.20185381e-02, 1.75180205e-03, -1.59696061e-02,
       -5.76502783e-03, -2.07067840e-03, -4.10723966e-03, 2.74042226e-03,
       -4.78069810e-03, -9.21102427e-03, -2.54713814e-03,
       -9.30811092e-03, -9.89831984e-03, 7.75554311e-03, 2.42409706e-02,
       9.82643198e-03, -1.84378792e-02, -1.70287788e-02, -2.34590750e-02,
       -1.56996250e-02, 4.53569810e-04, -1.04124183e-02, 7.26680038e-03,
       2.07577143e-02, 1.12360502e-02, -2.02474501e-02, 1.42506044e-03,
       -1.19644841e-02, 1.37626370e-02, 2.53891014e-03, -1.94455124e-02,
       1.99803221e-03, 1.27521055e-02, -7.36030284e-03, -1.83639713e-02,
       -1.40904086e-02, -3.51247415e-02, 6.38512801e-03, 3.84185836e-03,
       1.25199361e-02, -1.52139633e-04, 1.38556557e-02, -8.07533786e-03,
       4.02656849e-03, 1.21687362e-02, -2.82283709e-03, 4.14495729e-03,
       -6.15159888e-03, -1.47655206e-02, -2.19242331e-02, 3.90821230e-03,
       3.95694654e-03, 3.69860604e-03, -7.63574941e-03, -2.74114534e-02,
       -8.95662047e-03, 1.02421278e-02, -2.11784523e-02, -2.00140420e-02,
       -1.20651256e-02, -5.13478788e-03, 2.01929640e-03, 1.29273087e-02,
       -1.10464338e-02, 9.42386221e-03, 2.16635803e-04, 2.03694784e-04,
       -4.77910880e-03, 1.85771566e-03, 6.40168786e-03, 4.83327731e-03,
       1.12732146e-02, 7.86743313e-03, -6.32595085e-03, 2.83437446e-02,
       -1.15857320e-02, 8.16044863e-04, -3.54415504e-04, 3.31450859e-03,
       -4.78418404e-03, -2.51262989e-02, -3.39843845e-03, 1.40890749e-02,
       -7.24517461e-03, -4.88971453e-03, -1.43592909e-03,
       -6.72151428e-03, 1.06224569e-03, 1.15443254e-02, -2.13751607e-02,
       8.37853365e-03, -6.54104049e-04, -1.41149424e-02, -5.88672562e-03,
       -1.74741261e-02, -4.70436830e-03, -1.24380281e-02,
       -4.57686186e-03, -1.16262371e-02, -6.44857716e-03, 2.19433662e-03,
       7.39776576e-03, 5.21615474e-03, 8.11766554e-03, 4.65644756e-03,
       8.68819596e-04, 2.26099524e-04, -1.65561270e-02, 7.23913265e-03,
       -1.10856825e-02, 1.72199402e-03, 1.74160376e-02, 3.91999213e-03,
       1.03607355e-02, 4.44784621e-03, -6.49539521e-04, 7.88047444e-03,
       1.26666576e-02, 1.29538774e-02, -6.90468866e-03, -2.36050822e-02,
       -1.24893589e-02, 4.96566156e-03, 3.54353199e-03, -7.89270736e-03,
       -1.68426465e-02, -6.73718569e-06, 1.86931472e-02, 7.24722072e-03,
       5.12767583e-04, -5.91529626e-03, 1.82941090e-02, -4.40166891e-03,
       -5.07978676e-03, 1.20048812e-02, -6.04472868e-03, 1.24538150e-02,
       -7.68440659e-04, 8.53093993e-03, 1.87028050e-02, 1.28832506e-02,
       4.93789976e-03, 1.12294992e-02, 1.20684709e-02, 8.38032272e-03,
       6.40782993e-03, 1.11737195e-02, -8.18660390e-03, 4.24418366e-03,
       1.67077873e-02, 1.25034377e-02, 1.32677443e-02, -4.80275834e-03,
       -1.59049425e-02, -1.21484998e-04, -3.16945789e-03,
       -2.85372208e-03, -6.85070688e-03, -2.32643099e-03, 9.71283857e-03,
       1.63148027e-02, 3.08868330e-04, -2.50299070e-02, 4.96872608e-03,
       5.09796012e-03, 3.05733574e-03, 3.55488830e-03, -4.81602401e-05,
       -4.34422493e-03, 6.56499714e-03, -2.44945008e-03, 8.74259882e-03,
       2.18945439e-03, 1.39515512e-02, -6.64406037e-03, -1.22805443e-02,
       -7.20445765e-03, -2.42034454e-04, -8.70794430e-03, 1.35274418e-02,
       5.68981562e-03, 1.45320408e-02, 1.84749514e-02, -2.13620966e-04,
       -4.93863504e-03, 6.67991862e-03, -9.73191205e-03, 1.31380465e-02,
       4.44959337e-03, -9.92128998e-03, -1.03368144e-02, -9.15411022e-03,
       -1.18690794e-02, -2.75737443e-03, 1.23493783e-02, -4.10683732e-03,
       3.94416740e-03, -1.92315355e-02, 8.50069482e-05, -2.22551986e-03,
       -2.00101640e-02, -7.31117046e-03, -3.27916373e-03, 5.14966249e-03,
       -1.38223090e-03, 5.29061584e-03, 1.26277357e-02, -1.25841622e-03,
       -5.14433347e-03, 3.15163494e-03, -4.69156634e-03, 2.31976551e-03,
       1.23684285e-02, -4.97250073e-03, 1.00492742e-02, -5.85239101e-03,
       -7.44486554e-03, 5.17780567e-03, 9.50254966e-03, 1.45526184e-03,
       1.32929655e-02, 1.01987487e-02, 4.33464395e-03, -4.56247339e-03,
       4.11802530e-03, -3.22261383e-03, 1.82878245e-02, 7.45785329e-03,
       -9.45663452e-03, -3.66989407e-03, -7.24475691e-03,
       -1.07691688e-02, 1.53290462e-02, -3.94978980e-03, -1.02476301e-02,
       5.37990732e-03, 1.02578588e-02, -7.43140373e-03, -2.57427581e-02,
       5.92582684e-04, -2.39638984e-03, -5.61372796e-03, 1.12627521e-02,
       -1.66589431e-02, -1.93044380e-03, -1.75678602e-03,
       -5.23276674e-03, 5.32242563e-03, -6.97679538e-03, -1.69328656e-02,
       -1.26532437e-02, 3.51238204e-03, 2.28977553e-03, 1.37821818e-03,
       2.87845009e-03, -5.80481580e-03, -7.81846326e-03, 1.04447184e-02,
       3.22767580e-03, 3.35599296e-04, -1.38875213e-03, -5.65630756e-03,
       -1.24854995e-02, -1.74419098e-02, -1.85732841e-02,
       -1.01681910e-02, -2.47188308e-03, 6.47754362e-03, -9.25104693e-03,
       1.26089072e-02, -5.12364553e-03, 4.90390044e-03, 5.64157451e-03,
       2.27728467e-02, -1.34089414e-03, -6.29275106e-03, -5.51469158e-03,
       -1.65455937e-02, -1.52651966e-02, -3.57786869e-03,
       -2.99490802e-03, 8.29017442e-03, -5.39220776e-03, -1.22570442e-02,
       9.04107839e-03, -1.48034305e-03, 3.61245405e-03, 4.35272418e-03,
       -1.69411302e-02, 1.43391651e-03, -6.82106568e-03, 4.13409201e-03,
       -2.86091352e-03, -3.58506595e-03, -2.70707393e-03,
       -6.95758965e-03, -4.24378039e-03, -1.06929773e-02, 4.33963444e-03,
       -1.83490571e-02, 1.36705292e-02, -1.35217467e-02, -9.23684856e-04,
       1.79036683e-03, 6.40759899e-05, 1.31842529e-03, 8.67712719e-04,
       -1.97010282e-02, -1.28802182e-02, -7.84421898e-03,
       -4.22355020e-03, 9.52412840e-03, 2.68791249e-04, 5.58724627e-03,
       1.55789759e-02, 1.38706423e-03, 2.20033363e-03, -4.37866198e-03,
       -2.75431108e-03, -2.36833072e-03, 4.34179138e-03, -9.47220903e-03,
       -9.22786724e-03, 1.23279728e-02, 8.79053399e-03, -4.40831948e-03,
       9.55974590e-03, -6.53217314e-03, 1.83195528e-02, 2.26271432e-02,
       2.39614095e-03, 1.43355280e-02, 9.50342603e-03, -1.06042400e-02,
       -1.17507046e-02, -5.05985599e-03, -8.91068019e-03,
       -4.28003585e-03, -6.94835139e-03, -8.01477674e-03, 5.92651498e-03,
       -4.12674202e-03, -9.23281536e-03, 8.01083446e-03, 1.05603226e-03,
       2.50809523e-03, -7.49637792e-03, -1.44763431e-03, 1.27306767e-02,
       1.01922706e-04, -1.93073519e-03, -1.63927581e-02, -9.94846504e-03,
       -5.48769371e-04, 9.27850080e-04, 3.01826699e-03, 4.16263472e-03,
       -7.31921894e-03, -9.62274708e-03, 2.77417270e-03, -1.10978540e-02,
       9.15699918e-03, 3.24843312e-03, 1.22742709e-02, -7.84084387e-03,
       5.38055506e-03, -5.09217556e-04, 9.24735330e-03, -3.79239209e-04,
       -8.95390566e-03, -1.11615960e-03, -1.24273067e-02,
       -6.82247756e-03, -1.35934139e-02, 9.34538990e-03, 1.68575998e-02,
       2.88287993e-03, -4.35036002e-03, -5.93439509e-05, -3.15096416e-03,
       -7.05396757e-03, 9.13632661e-03, -7.04628974e-03, 4.10419237e-03,
       -3.29179410e-03, 4.96936322e-04, 1.32955899e-02, 6.25568442e-03,
       1.41199455e-02, -4.33641300e-03, 2.08116807e-02, -7.88440835e-03,
       9.90911014e-03, 1.24738021e-02, -5.18979039e-03, -3.17374215e-04,
       3.81336780e-04, 2.27539744e-02, -1.00871203e-02, 1.52450111e-02,
       2.61929352e-02, 9.62880068e-03, 4.29240568e-03, 6.72540907e-03,
       1.64411236e-02, -7.32656568e-04, -5.41942054e-03, -5.43203251e-03,
       8.01308139e-04, 1.78963528e-03, 5.03123039e-03, -7.02520506e-03,
       6.44157873e-03, 4.95975511e-03, 1.11733377e-02, -2.29773694e-03,
       7.53812259e-03, 6.65892614e-03, 1.98242906e-02, 6.56361599e-03,
       -5.69560379e-03, -6.56371191e-03, 9.76989046e-03, -6.55144826e-03,
       -3.50781251e-03, 9.77064390e-03, -2.94261472e-03, 8.04551318e-03,
       -2.21253606e-03, -1.42160784e-02, -7.83260260e-03, 9.02130362e-03,
       1.10394815e-02, 1.60303898e-02, 1.40028270e-02, 6.35660300e-03,
       1.07224686e-02, -2.00724881e-02, -1.58291832e-02, -2.01503769e-03,
       -4.06418880e-03, -2.77171656e-03, -1.52645716e-02, 1.36122778e-02,
       -3.79407429e-03, 1.44559825e-02, 3.26983118e-03, 5.91329299e-03,
       -1.00058457e-02, 1.05288345e-02, -3.05850003e-02, 9.16948658e-04,
       4.97020129e-03, 1.28193880e-02, 8.53906199e-03, 4.29203454e-03,
       5.65127283e-03, 6.37341384e-03, -2.06281454e-03, 3.32383718e-03,
       -2.33703293e-03, 5.17473230e-03, -2.26791785e-03, 1.35054318e-02,
       -1.34798959e-02, 4.72366577e-03, -5.64356521e-03, -2.03027343e-03,
       -7.91556295e-03, -1.05324539e-03, 8.19511339e-03, -3.00633581e-03,
       7.52709946e-03, 1.11721726e-02, 5.57340216e-03, -7.56687718e-03,
       3.36048119e-02, -9.17117205e-03, -2.25787726e-03, -1.18965944e-02,
       -7.52860447e-03, -1.13062235e-02, -6.25444204e-03, 3.38118966e-03,
       -1.65066496e-02, 7.26513390e-04, -1.56684425e-02, 8.80006980e-03,
       -3.03057814e-03, 1.78582035e-02, -1.54352020e-02, 2.44541932e-03,
       9.62176360e-03, -2.29483917e-02, 1.42828850e-02, 4.66041267e-03,
       5.41516952e-03, -8.10241851e-04, -5.49972523e-03, -2.36925203e-02,
       7.29824358e-04, 1.23565015e-03, -1.64205600e-02, 1.13770668e-03,
       7.97810033e-04, 1.05325393e-02, 1.77053753e-02, 1.09236259e-02,
       -9.35126469e-03, -3.30348476e-03, 3.63822863e-03, -3.60136759e-03,
       3.23909381e-03, -1.61924381e-02, 5.95941627e-03, 1.83600117e-03,
       2.26883832e-02, 2.78147822e-03, 1.16175581e-02, 2.33575888e-02,
       -7.08198408e-03, 1.05167681e-03, -2.02552555e-03, 4.59279818e-03,
       1.42521970e-03, 8.90321739e-04, 3.74250580e-03, 1.07113947e-03,
       2.11378536e-03, 1.81391444e-02, 9.81582794e-03, -1.63538642e-02,
       -5.49711147e-03, -1.11737652e-02, 7.26127066e-04, -8.43004603e-03,
       -7.97868147e-03, 2.07832549e-02, -8.42535775e-03, -1.22588249e-02,
       5.80195105e-03, -1.20978674e-03, -2.70092714e-04, 1.13842299e-03,
       9.38730873e-03, -1.77903734e-02, -5.54118445e-03, -3.13509116e-03,
       3.66167282e-03, 2.38054688e-03, -4.86487383e-03, -1.03770429e-02,
       -5.98894618e-03, -6.44293940e-03, -2.56805768e-04, 3.92498495e-03,
       1.32572241e-02, 6.10950030e-03, -9.28195845e-03, 1.14897499e-02,
       2.75155297e-04, 9.25523508e-03, -5.00775874e-03, 4.58128424e-03,
       -5.30253444e-03, 2.62472616e-03, -1.82474554e-02, -6.06261380e-03,
       -1.58370547e-02, 1.73303932e-02, 4.65563638e-03, -8.16164259e-03,
       -1.07107181e-02, 3.72690079e-03, 9.75893752e-04, 4.25140420e-03,
       1.27891963e-03, -3.30427731e-03, 6.35604491e-04, 1.36227841e-02,
       1.52448090e-02, 1.33238845e-02, -5.70443785e-03, 1.46421138e-02,
       5.33214118e-03, -1.27501879e-02, 8.77945311e-03, -1.33379027e-02,
       -2.29762904e-02, -1.16068227e-02, -8.65672156e-03, 9.70151741e-03,
       -4.22020769e-03, -3.24725988e-03, -5.48422430e-03,
       -1.01201870e-02, 5.61545277e-03, -2.16562115e-02, 6.54623797e-03,
       5.72008174e-03, 8.59301910e-03, -5.86964702e-03, 8.47847259e-04,
       -1.28042763e-02, -3.64882709e-03, -5.22053428e-03, 2.12259474e-03,
       3.25271254e-03, 4.02404135e-03, 4.99983039e-03, -8.52168631e-03,
       -1.09905368e-02, -4.05501481e-03, -1.47142475e-02, 1.77650172e-02,
       1.62769761e-03, 9.50405654e-03, 8.73686839e-03, -6.83057541e-03,
       1.73058407e-03, 9.18089878e-03, -6.13419292e-03, 1.44331725e-02,
       -5.10446820e-03, -1.46766612e-02, -2.91806087e-03, 1.30387992e-02,
       3.78911686e-03, 2.53687217e-03, 1.41805084e-03, -7.03773834e-03,
       -9.32767149e-03, -1.35837020e-02, 5.97992726e-03, 6.64435513e-03,
       -2.21582525e-03, 2.19677482e-03, -1.15936864e-02, -7.21878046e-03,
       1.43209705e-02, 6.99267443e-03, 5.30245854e-03, -1.41404970e-02,
       1.47190725e-03, 1.06480094e-02, -4.88992687e-03, 4.96613327e-03,
       -5.41875139e-03, -1.47872446e-02, 5.49594359e-03, -6.94831461e-03,
       -2.47035339e-03, -1.91598886e-03, 3.94085684e-04, 3.27024981e-03,
       -2.68390425e-03, -4.55834111e-03, -1.43334344e-02,
       -4.10246942e-03, 3.61257372e-03, 4.41698270e-04, -1.31586026e-02,
       -8.95342324e-03, -8.70133168e-04, 6.43145014e-03, 8.11728835e-03,
       -1.17025925e-02, -1.42949009e-02, -1.05817904e-04,
       -8.63242615e-03, 7.32363202e-04, -1.11534540e-02, -4.28666477e-04,
       9.18509811e-03, 6.52507693e-03, -1.74252444e-03, -4.27357299e-04,
       1.07765924e-02, 1.71520859e-02, -1.78191904e-02, -1.93276163e-02,
       2.48408946e-03, 1.05808098e-02, 1.38330488e-02, 1.67530701e-02,
       -9.76887811e-03, -2.67839595e-03, 1.22805350e-02, -1.99426245e-03,
       -3.43725528e-03, 6.08775578e-03, -4.93849581e-03, 5.31443104e-04,
       1.94373587e-03, -1.25880372e-02, -1.44314282e-02, 2.46293796e-03,
       -4.14862327e-04, -7.62522360e-03, -7.50482408e-03,
       -2.04370487e-02, 4.99150530e-03, 2.43644277e-03, -1.44861103e-03,
       -3.24294972e-03, -7.17457151e-03, -2.06961241e-02, 8.12109001e-03,
       -2.15783268e-02, 1.24797430e-02, 1.00564286e-02, 2.90457066e-02,
       2.83674628e-04, -5.57620078e-03, -2.47863750e-03, 1.09149460e-02,
       5.79909468e-03, -1.37908356e-02, 8.69341660e-03, -6.86784042e-03,
       -2.02900264e-03, 2.46066647e-03, 1.11621935e-02, 1.04814097e-02,
       7.11703068e-03, 2.54692174e-02, -5.65402722e-03, -1.83625370e-02,
       1.28330141e-02, 1.12161301e-02, -5.49808005e-03, -1.83288120e-02,
       -1.49107156e-02, -2.07010023e-02, 7.42050959e-03, -2.04133093e-02,
       -3.30024073e-03, 7.15555949e-03, 4.71038278e-03, 1.73714273e-02,
       -1.60357654e-02, -2.34182756e-02, -8.17446783e-03,
       -2.04972387e-03, -4.41997638e-03, 2.54887069e-04, 6.49287691e-03,
       5.43953991e-03, -7.01686926e-03, -6.84408937e-03, 7.94757530e-03,
       -1.68812461e-02, 2.26760488e-02, 5.73745836e-03, -6.73380739e-04,
       7.85883516e-03, 1.22375237e-02, 1.87153704e-02, 7.54525652e-03,
       -2.34713056e-03, -4.97590844e-03, 8.92469380e-03, 9.69047565e-03,
       4.19286732e-03, 8.43389798e-03, -1.76529016e-03, 6.30999729e-03,
       -1.32867182e-02, -8.16150941e-03, -1.34955756e-02, 2.43873661e-03,
       2.14560446e-03, -8.30232631e-03, -3.97790689e-03, 4.38383501e-03,
       3.17514036e-03, -8.40956625e-03, 7.99238868e-03, -2.84404238e-03,
       1.08251385e-02, 1.46777160e-03, -3.16556008e-03, -1.57849248e-02,
       -8.88807792e-03, 4.66473633e-03, 8.32865573e-03, 5.58279594e-03,
       -5.74049633e-03, -2.14919215e-03, -6.18468679e-04,
       -2.80410890e-03, -9.87401232e-03, 8.60574562e-03, 2.30387715e-03,
       -3.54402419e-03, 1.61444452e-02, 5.61854430e-03, 7.16841361e-03,
       -9.90482513e-04, -9.43274889e-03, -3.55050084e-03,
       -9.23124328e-03, 6.29294943e-03, -1.89857278e-03, 4.58822993e-04,
       -6.99784560e-03, 8.03009141e-03, -4.91960486e-03, 9.32163000e-03,
       3.38659342e-03, -1.00465342e-02, 3.07182781e-03, 6.89998269e-03,
       -2.28655967e-03, -9.26859304e-03, 5.66364266e-04, -1.04287663e-03,
       -3.16741323e-04, 1.32075083e-02, 7.00521423e-03, -9.64806136e-03,
       -3.18687549e-03, 8.26242846e-03, 9.61472001e-03, 1.35285156e-02,
       -3.29783466e-03, 1.08741755e-02, 9.02675372e-03, 4.83416719e-03,
       -2.97564635e-04, 1.51507379e-02, 1.05873859e-02, -4.82430821e-03,
       8.35674163e-03, -5.62930806e-03, 6.41563791e-04, 5.68932435e-03,
       6.98755356e-03, 1.37759547e-04, 2.00608559e-03, -1.86411999e-02,
       -7.00101675e-03, -1.23819886e-02, -9.68614779e-03,
       -5.54947741e-03, 2.89247697e-03, 2.00603768e-04, -1.67280752e-02,
       1.65111816e-03, -6.98559126e-03, 6.13860553e-03, 4.40199906e-03,
       -1.38915349e-02, 3.20876483e-03, -1.24326777e-02, -4.85508423e-03,
       8.27814545e-03, 1.90449208e-02, 3.20356223e-03, -6.87395129e-03,
       7.27436447e-04, -5.79224201e-03, -1.26650073e-02, -1.43529214e-02,
       -1.29144061e-02, 5.93153760e-03, 4.08879155e-03, 2.40967423e-02,
       4.21639485e-03, 9.55921970e-03, -5.82096772e-03, 1.14014065e-02,
       8.49968474e-03, -6.36411272e-03, 2.61453446e-03, 8.63332953e-03,
       5.09378687e-03, -1.15178889e-02, 1.02088612e-03, 1.22256402e-04,
       -8.87732394e-03, -3.80486553e-03, -4.50315606e-03, 6.00797217e-03,
       -4.47154138e-03, 1.95139306e-04, -7.57231005e-03, -3.74320755e-03,
       -7.81426032e-04, 3.62729724e-03, 1.37344124e-02, -2.91000772e-03,
       5.73566509e-03, 1.24018015e-02, -2.04255432e-03, -6.30618632e-03,
       4.21788124e-03, 1.97528605e-03, -4.67210962e-03, -6.32453524e-03,
       9.36798938e-03, 1.25712687e-02, 8.34466051e-03, -5.34487481e-04,
       -6.06387667e-03, -2.53828615e-03, 4.76623373e-03, -7.64875533e-03,
       2.14135088e-03, 5.66675386e-04, 1.75780971e-02, -1.87016372e-02,
       8.76038987e-03, 3.11809150e-03, 4.81302245e-03, 4.55818139e-03,
       5.14621055e-03, -1.61379518e-03, 1.10064568e-02, -4.37214156e-04,
       -5.01392130e-03, 7.82661047e-03, -1.01179257e-02, 3.91087309e-03,
       1.11768313e-03, -7.21608428e-03, -1.56090886e-03, -4.41773236e-03,
       -1.39703518e-02, -1.59849264e-02, 5.19310217e-03, -1.73203982e-02,
       -2.85582122e-04, 1.52010163e-02, -1.37130534e-02, 1.73227815e-03,
       2.61895936e-02, 7.13719195e-03, -9.36646946e-03, 1.77217294e-02,
       7.62494793e-03, 1.64161697e-02, 5.13702817e-03, 1.29310209e-02,
       8.20299704e-03, -4.69135912e-03, -1.91451963e-02, -4.21450892e-03,
       -1.69880055e-02, -1.42268809e-02, 7.57461123e-04, -6.89902622e-03,
       6.68093236e-03, 6.33511413e-03, -1.39389122e-02, 2.19840044e-03,
       -5.37885400e-03, -7.78948469e-03, 2.21760152e-03, -6.21825643e-03,
       2.97566876e-03, -1.50205125e-03, -8.17829091e-03, 4.94581740e-03,
       -7.43733067e-03, -2.53417180e-04, -2.28297850e-03, 2.20754207e-03,
       -1.98971070e-02, -1.04389144e-02, 3.66069516e-03, -1.06600700e-02,
       -1.99083649e-02, -4.60355729e-03, 1.07515492e-02, 1.82249136e-02,
       1.40415244e-02, -8.80536903e-03, 8.65298323e-03, 2.04248726e-02,
       8.62210058e-04, -9.30444058e-03, 3.57895224e-05, -1.28868688e-02,
       -1.56090874e-02, -8.98570474e-03, -1.44859543e-02, 1.53121511e-02,
       -1.72385026e-03, -3.94621585e-03, 3.13791214e-03, -4.13467828e-03,
       1.55776169e-03, -1.95754152e-02, -1.33416401e-02, -7.02819787e-03,
       -3.16671841e-03, -4.04881360e-03, -7.19770014e-06,
       -1.29960254e-02, -8.21487512e-04, 2.06410624e-02, 1.23388283e-02,
       1.48154534e-02, -2.50566774e-03, 1.15803527e-02, 1.98709825e-03,
       9.26000532e-03, 6.18735608e-03, 1.30474865e-02, 6.94338419e-03,
       -1.23738346e-03, 1.21571094e-04, 7.45880650e-03, -2.33916077e-03,
       -8.73797201e-03, 3.46462941e-03, 2.32374724e-02, 1.85127016e-02,
       3.57643887e-03, -9.54488572e-03, -8.15133378e-03, 3.19674565e-03,
       -4.86187451e-03, 1.77436112e-03, 1.11973435e-02, 1.30843720e-03,
       -5.01219556e-03, -6.75448170e-03, 7.13790487e-03, 2.11179350e-02,
       4.90410812e-03, 5.89718344e-03, 2.98999254e-07, 1.11501943e-03,
       4.84620966e-03, 2.13354453e-03, 5.05140051e-03, 1.31517714e-02,
       1.05443876e-02, 1.20602697e-02, -4.48613800e-03, -2.75953254e-03,
       1.14590013e-02, -2.02673767e-03, -4.07041516e-03, 1.57825500e-02,
       2.53193807e-02, 2.11775098e-02, 6.40078331e-04, 2.75303167e-03,
       1.10534793e-02, 2.12793667e-02, -6.94998074e-04, -8.56897328e-03,
       -3.51686217e-02, -1.55998692e-02, -3.25483433e-03,
       -1.12553090e-02, 3.61902360e-03, 6.03929046e-04, 5.23109175e-03,
       1.72387920e-02, 3.04649491e-03, -8.84793047e-03, -1.05807194e-02,
       2.72047101e-03, -2.18571667e-02, 2.46744254e-03, -4.79958486e-04,
       2.53699832e-02, -1.33187110e-02, 6.65587839e-03, 6.57986524e-03,
       -1.69009704e-03, 9.78021300e-04, -6.81554619e-03, 3.93094320e-04,
       -5.44684241e-03, 1.29382545e-02, 2.65894714e-03, 1.70686860e-02,
       2.12352816e-02, 1.56778060e-02, -1.50012478e-04, 1.16991217e-03,
       4.26259683e-03, -9.33429284e-04, 2.39537490e-04, -1.97649980e-03,
       -7.88964331e-03, -5.08961617e-04, -6.27307594e-03,
       -1.10808704e-02, -1.51443314e-02, 8.40984378e-03, -1.33921159e-03,
       -4.02104761e-03, -1.01620480e-02, -2.06900127e-02,
       -5.20103611e-03, -1.05769038e-02, -4.30201553e-03,
       -7.88088830e-04, 7.94462208e-03, 1.33926072e-03, 9.82080586e-03,
       1.68843307e-02, 9.81266238e-03, -1.00352638e-03, 3.91546916e-03,
       -7.82872923e-03, 7.62647251e-03, 1.18258931e-02, -4.44829185e-03,
       -1.35574220e-02, -1.08706777e-03, 1.83326600e-03, 1.15827727e-03,
       -1.24106416e-02, -6.75745402e-03, 1.00535192e-02, 2.34661275e-03,
       3.78524279e-03, 4.06565005e-03, 6.74659945e-03, -8.74787103e-03,
       1.47242947e-02, 1.41645232e-02, -4.60255845e-03, -1.90639053e-03,
       1.06293205e-02, -1.59803731e-03, 6.46168250e-04, 2.11572181e-02,
       -1.23313842e-02, 3.36997658e-02, 1.06980363e-02, 1.16053270e-03,
       8.64678901e-03, 1.58679001e-02, -1.29936980e-02, -1.36643220e-02,
       -7.28837354e-03, -2.26359479e-02, 5.86431194e-03, -2.69588665e-03,
       -1.10911457e-02, -7.64470175e-03, -1.50288297e-02,
       -1.23993978e-02, 5.20024309e-03, 1.19538428e-02, -9.71549744e-05,
       1.92276724e-02, 4.26941970e-03, -1.48910563e-02, -4.53590881e-03,
       6.60440326e-03, -3.53124761e-03, -7.71860266e-03, 1.56947132e-02,
       1.63448229e-03, 1.43276725e-03, -1.20695243e-02, -3.69212078e-03,
       6.81358669e-03, 8.44249967e-03, 4.81835473e-03, -8.48347601e-03,
       1.12990756e-02, 8.75054393e-03, 7.51018850e-03, -3.11617763e-03,
       -1.19109713e-02, -6.19881204e-04, 1.39798701e-03, 7.50645064e-03,
       1.46208808e-03, 1.64897367e-02, 6.90718740e-03, 9.94046801e-04,
       1.12428991e-02, 3.40033555e-03, 7.88477436e-03, 9.43760108e-03,
       1.28446724e-02, 1.72678404e-03, 7.38362642e-03, 1.38839073e-02,
       2.06165928e-02, 6.39033131e-03, 1.56274736e-02, 5.67767397e-03,
       -1.59713849e-02, 4.94662765e-03, 6.02422748e-03, -8.19926336e-03,
       -8.51692166e-03, -1.27922185e-02, 3.12647969e-03, 1.27741955e-02,
       3.70105100e-03, 7.59659742e-04, -6.25781761e-03, 9.75207239e-03,
       8.48511979e-03, -7.89932034e-04, 1.28592206e-02, -2.48209981e-04,
       1.48938522e-02, -3.16929328e-03, -1.12404721e-02, 1.21287331e-02,
       1.14640007e-02, -1.96366441e-02, -9.25979856e-03, -5.53586101e-03,
       -1.00623826e-02, -2.66324286e-03, 1.36918295e-02, 4.79861628e-03,
       1.43610397e-02, 1.41299898e-02, -1.38932467e-02, 5.15894266e-03,
       2.52753869e-02, -8.21175054e-05, 9.05441400e-03, -2.46829912e-03,
       -8.06073751e-03, 9.26102698e-03, 4.92544088e-04, 5.83802722e-03,
       8.95619299e-03, -6.51905546e-03, -1.84809435e-02, 9.92271584e-03,
       1.39286229e-03, -1.81404650e-02, 6.21924410e-03, -1.34326909e-02,
       -2.29359115e-03, 4.31203889e-03, 7.48874201e-03, 8.11630744e-04,
       -2.08134041e-03, 4.10780124e-03, -1.43056940e-02, 2.47036554e-02,
       -8.92871001e-04, -1.83314439e-02, -1.32049085e-03,
       -1.82858494e-03, 8.01266229e-04, 6.62681786e-03, -1.05967198e-03,
       -6.14130730e-03, 1.31380009e-02, -4.16999916e-03, 1.14227971e-02,
       1.08300727e-02, -7.47971702e-03, 3.25942456e-05, -1.96267124e-02,
       -2.38744123e-03, 2.37753801e-03, 4.59735608e-03, -5.40071353e-03,
       -5.65574458e-03, -3.67456186e-03, -5.64152980e-03, 1.59323961e-02,
       -1.59934652e-03, 1.14764012e-02, -2.39302614e-03, 7.70668127e-03,
       -5.16684493e-03, 2.47135106e-03, 4.89464169e-03, 5.80732804e-03,
       8.42493027e-03, -4.89783986e-03, -3.64126568e-03, 3.52353952e-03,
       -1.05326204e-02, -1.23175140e-02, -1.36154080e-02, 1.26000270e-02,
       3.14050890e-03, 4.80803149e-03, -3.81182483e-03, 5.50551107e-03,
       -5.53687802e-04, 7.17271538e-03, -5.43936482e-03, -2.56065112e-02,
       -3.10069066e-03, 1.10428436e-02, -8.24004004e-04, -8.28475517e-04,
       8.54849163e-03, 6.61514420e-03, 9.29896068e-03, -1.91447567e-02,
       4.73383348e-03, 6.86383946e-03, -5.05295722e-03, 4.18794947e-03,
       -1.27529046e-02, -2.07240134e-02, -3.23404651e-03, 1.02877738e-02,
       -1.60343875e-03, 2.10540053e-02, -2.89920927e-03, -2.26394203e-03,
       1.41957318e-02, -4.83465102e-03, -1.46058062e-02, 3.51828930e-04,
       1.18989348e-02, 2.36468832e-03, -3.59702040e-04, 9.11347196e-03,
       -8.64535663e-03, 3.23885516e-03, -1.04307616e-02, -2.35340573e-04,
       1.05078788e-02, 2.14299839e-03, -2.88204383e-03, -6.31489512e-03,
       7.11127976e-03, 7.07175490e-03, 1.18780239e-02, 1.15419063e-03,
       -2.04817508e-03, 4.82631009e-03, -4.74973489e-03, 1.39474208e-02,
       1.04117990e-02, -1.15010957e-03, -7.53781572e-03, -1.34889986e-02,
       1.37936389e-02, 4.97587724e-03, -5.75768948e-03, 1.28088119e-02,
       -2.35927873e-04, -9.81643796e-03, -1.63092017e-02,
       -2.22765952e-02, 3.52298794e-03, 1.84635650e-02, 2.00281553e-02,
       5.32099279e-03, -1.95603240e-02, -5.95935667e-03, -8.37133545e-03,
       1.13443006e-02, 1.67010445e-02, -2.32204446e-03, 1.96314361e-02,
       -8.75153206e-03, -9.14598629e-03, -1.31039405e-02,
       -4.17475030e-03, 1.75778922e-02, 9.24124289e-03, 3.92911630e-03,
       1.07224211e-02, 1.46234110e-02, -7.83948041e-03, 1.52951665e-03,
       6.79494208e-03, -3.91137134e-03, -1.81186580e-04, 3.96419410e-03,
       -1.27796168e-02, 4.63808421e-04, -1.21881505e-02, 1.04913255e-02,
       2.04009493e-03, -5.75114926e-03, -4.14511608e-03, -9.77063086e-03,
       3.38926353e-03, -8.01968295e-03, 1.91947240e-02, -6.92378904e-04,
       1.74547378e-02, 2.91386340e-03, 6.77741785e-03, 6.44767564e-03,
       4.97976737e-03, -2.65147799e-04, -2.79381592e-03, -7.17348838e-03,
       -3.47806397e-03, -2.94539565e-03, -2.04430101e-03, 5.36888314e-04,
       -1.00966282e-02, 2.56420020e-03, 1.12785294e-03, -3.22617078e-03,
       1.00127552e-02, -7.81428069e-03, 1.18313022e-02, 5.97216515e-03,
       1.62778236e-02, 1.88834816e-02, 2.66481261e-03, -1.41925330e-03,
       -6.94462657e-03, 1.20280683e-02, 3.25918128e-03, 1.12057617e-02,
       4.56789089e-03, 2.02734882e-04, 1.45127354e-02, 4.61403234e-03,
       4.87359939e-03, -7.93282781e-03, 1.16422409e-02, -6.32762257e-03,
       -9.55986418e-03, -1.03959450e-02, 1.11576570e-02, -4.35281219e-03,
       6.60421560e-03, 8.96247977e-04, -1.51178939e-02, 1.79924048e-03,
       1.86201488e-03, -4.96741664e-03, -7.62254756e-04, 8.74333549e-03,
       -6.93114591e-04, -4.96712374e-03, 1.42795825e-02, 4.69785230e-03,
       2.96173561e-02, -2.41047423e-03, -5.79878734e-03, -1.33613916e-02,
       -6.15405571e-03, -7.41812354e-03, -7.22491555e-03,
       -1.82385352e-02, -2.56276391e-02, -2.56568915e-03,
       -1.18203498e-02, 8.16762540e-03, 2.11348403e-02, -4.86134412e-03,
       -1.91904493e-02, 1.36388894e-02, -2.17837188e-03, 6.41975785e-04,
       5.86851081e-03, 5.11041004e-03, -5.38634462e-03, 1.09068267e-02,
       3.18894628e-03, -5.67073049e-03, 1.00130145e-03, -2.66970461e-03,
       1.80775728e-02, 1.65286437e-02, -1.08871516e-02, 1.42615093e-02,
       4.78602014e-03, 8.50648503e-04, -6.74849842e-03, 2.12672669e-02,
       2.23754235e-02, 3.72363329e-02, -8.17038491e-03, 6.35145418e-03,
       7.78322294e-03, 1.20073336e-03, 8.27056356e-03, -1.23679694e-02,
       1.22755375e-02, 5.68177830e-03, -1.90377366e-02, -1.67955607e-02,
       -1.07814241e-02, -2.27109306e-02, 2.80842651e-03, -3.71993450e-03,
       4.82411764e-04, 8.19515251e-03, 1.09816585e-02, -5.36728511e-03,
       -1.18491305e-02, -8.52973387e-03, -1.79538429e-02, 3.09646549e-03,
       2.14786432e-03, -7.46741518e-03, -2.86112081e-05, 3.26644094e-03,
       5.59405331e-03, -1.74678881e-02, 1.56252272e-02, 7.38935405e-03,
       -1.46216173e-02, -1.45962117e-02, -5.34865446e-03, 1.06411912e-02,
       1.67268664e-02, 9.08325147e-03, 1.89573653e-02, 1.17658740e-02,
       6.20886171e-03, -1.81712545e-02, -5.93560841e-03, 6.84340391e-03,
       4.50797286e-03, -1.30230328e-03, -1.58859733e-02, -2.46488471e-02,
       3.52833397e-03, -4.90608625e-03, 1.27913365e-02, 8.92441021e-04,
       -6.02854823e-04, -1.36494916e-02, 1.08613195e-02, -2.45594662e-02,
       -1.63595695e-02, 8.27024132e-03, 8.39146413e-03, 1.65556408e-02,
       -1.54631995e-02, 4.24446398e-03, -1.62300188e-03, -1.37822712e-02,
       8.01527349e-04, 1.27243088e-03, 1.07255494e-02, 1.19619258e-02,
       -9.90590919e-03, -4.11733938e-03, -7.15454458e-04,
       -1.03896600e-03, 1.86036676e-02, 1.25269303e-02, 5.84792532e-03,
       2.10979823e-02, 1.69087797e-02, -7.01500569e-03, 1.49376935e-03,
       -7.11809378e-04, -1.90099701e-02, -4.15066956e-03,
       -1.59334689e-02, 1.04652252e-02, 1.09833316e-03, 9.61674564e-03,
       9.14192945e-03, -1.13206776e-02, -6.23597344e-03, -2.02007312e-02,
       -3.54755740e-03, 7.60433357e-03, 1.89125184e-02, -1.35988751e-02,
       -4.48709633e-03, 1.31003400e-02, 7.45859323e-03, 8.92202742e-03,
       -8.59112071e-04, -1.61566865e-03, -2.73716869e-03, 6.52103173e-03,
       1.05353072e-02, 1.08417580e-02, 7.31874770e-03, 8.35974049e-03,
       -1.29432427e-02, 1.60206053e-02, 1.41917458e-02, 3.65900551e-03,
       1.43420817e-02, -3.09733703e-04, 8.52403231e-03, 6.88706152e-03,
       -4.46991855e-03, -3.16635636e-03, -5.94104640e-03, 1.02882888e-02,
       -7.56718731e-03, -1.01748193e-02, -1.21389013e-02,
       -5.82794147e-03, 6.89899456e-03, -8.14549159e-03, -3.15912929e-03,
       -9.19658691e-03, 1.75992642e-02, 1.45575439e-03, 3.81039426e-04,
       -2.50615994e-03, 1.24815162e-02, 8.05549975e-03, -6.34226110e-03,
       -1.35514773e-02, 1.22217322e-02, 8.99925595e-04, -1.14903869e-02,
       1.65888909e-02, 1.60514712e-02, -3.68754473e-03, -2.45800172e-03,
       1.18819298e-03, -3.85087472e-03, 6.69042114e-03, 8.58986005e-03,
       2.68201879e-03, 2.41002184e-03, 1.58861428e-02, 7.43302982e-03,
       3.49135953e-03, 1.52357509e-02, -5.16921608e-03, 1.37218907e-02,
       1.84801351e-02, -1.52129950e-02, 1.93927309e-03, -1.95573959e-02,
       1.86664127e-02, 1.16050607e-02, 2.68769109e-05, -5.78893442e-03,
       -1.15245618e-02, 4.04124055e-03, -3.49415606e-03, 3.34744481e-03,
       5.25591010e-03, 1.79561134e-02, -6.09178934e-03, -3.45628499e-03,
       -1.49344122e-02, 7.47267809e-03, 2.86934851e-03, -5.93943847e-03,
       2.14568828e-03, -1.38758104e-02, 2.42899195e-03, -9.28497466e-04,
       1.43401686e-03, 8.93566199e-03, 1.52995903e-02, 2.11121887e-02,
       -6.57643285e-03, 1.61031652e-02, 6.14823587e-03, 6.44644862e-03,
       6.57089893e-03, -1.20330593e-02, -1.12369200e-02, -1.55988513e-02,
       -1.18698254e-02, -1.11214695e-02, -2.41476693e-03, 2.99726147e-03,
       -3.18937004e-03, -1.06707495e-02, 4.27841255e-03, 5.60524687e-03,
       -6.76035197e-05, 6.20073313e-03, -1.66088212e-02, -3.53161502e-03,
       -1.52106443e-03, -3.23278015e-04, 4.99116676e-03, 2.03720406e-02,
       9.31754056e-03, -6.53032213e-03, 1.93109587e-02, 3.13054514e-03,
       -2.53413781e-03, 2.42611635e-02, 4.12593130e-03, 1.13882171e-02,
       2.61110067e-03, 1.11970752e-02, 3.69153405e-03, 2.62984615e-02,
       1.55778471e-02, 2.21372601e-02, 2.59770919e-02, 1.02672838e-02,
       -3.06476653e-03, 7.79221812e-03, 5.75616769e-03, 6.31131278e-03,
       -1.47496369e-02, -2.95060519e-02, 3.27495672e-03, 4.97358013e-03,
       1.13664186e-02, 8.30656197e-03, 2.61291186e-03, -9.22848098e-03,
       3.65903298e-03, 1.32007059e-03, 3.84100969e-03, -3.91246565e-03,
       1.50912208e-02, -2.11008894e-03, -1.55446343e-02, 7.97213148e-03,
       1.54844904e-03, -2.91805528e-03, -8.00479203e-03, 2.05104407e-02,
       2.93035898e-02, 2.18026023e-02, 9.10646096e-03, 1.98359974e-02,
       7.18810176e-03, 1.02797067e-02, 1.94562096e-02, 6.83707930e-03,
       4.36494220e-03, 4.64559160e-03, 1.71601139e-02, -6.51393551e-03,
       -6.27235509e-03, -4.17517545e-03, 2.45833974e-02, -1.05193723e-02,
       3.29707749e-03, -1.00539429e-02, -3.22829792e-03, -1.06260851e-02,
       1.39591573e-02, -2.15717908e-02, 1.58838241e-03, 1.07455626e-02,
       -1.26966126e-02, 6.83263526e-04, 1.72550622e-02, 3.31418007e-03,
       -2.14887820e-02, 2.43500131e-03, -1.03486730e-02, -2.08922965e-03,
       3.83051549e-04, 6.20737206e-03, 2.20279526e-02, -7.13079516e-03,
       9.35507659e-03, 2.77489866e-03, 1.09536666e-02, -4.31555090e-03,
       4.90206853e-03, 3.87289608e-03, 2.60886946e-03, 1.35578029e-03,
       1.36394771e-02, 2.05742870e-03, -1.32362889e-02, 9.83685348e-03,
       1.12183113e-02, 1.32350493e-02, 4.22981149e-03, -5.95189817e-03,
       1.66750816e-03, 3.85727524e-03, 3.57358018e-03, 1.25008095e-02,
       1.56994667e-02, 1.37345297e-02, 9.48434323e-03, -1.41961558e-03,
       7.66554242e-03, 1.82730751e-03, -8.79095402e-03, -1.28039727e-02,
       -1.05037652e-02, 1.13371676e-02, 1.01010473e-02, -1.78106048e-03,
       -2.76173302e-03, 1.76349469e-02, 7.13119516e-03, 6.91868481e-04,
       1.17677506e-02, -3.58056277e-03, 1.72017254e-02, 7.83297699e-03,
       -9.64558742e-04, -9.00114514e-03, 1.17954677e-02, 1.82985123e-02,
       -1.90213101e-03, 1.09849898e-02, -8.05524364e-03, 3.15287244e-03,
       2.95053283e-03, -1.26562198e-03, -4.50171437e-03, -3.45190614e-03,
       9.06931050e-03, -4.08672169e-03, -2.36969963e-02, -1.12935482e-02,
       1.89178652e-04, -6.66827941e-03, -1.95760676e-03, 9.46123991e-03,
       -1.12243593e-02, 5.73769771e-03, -9.90476087e-03, -7.03694532e-03,
       -5.54359239e-03, -1.49524584e-02, -8.24996922e-03,
       -6.55985903e-03, 1.06167374e-02, -4.04048129e-04, 3.68613191e-03,
       -5.57951815e-03, -1.22538337e-03, -9.68609005e-03,
       -3.38403828e-04, -4.95353481e-03, -1.28686996e-02, 2.27188319e-02,
       8.72249156e-03, 1.75458640e-02, 4.34747664e-03, 3.02731190e-02,
       9.29860771e-03, -9.41932295e-03, 6.28598558e-04, -3.08034825e-03,
       9.83169861e-03, -5.80434548e-03, 4.25509736e-03, -1.36768594e-02,
       -7.05255289e-03, 2.09984952e-03, 4.79447702e-03, -1.81823736e-03,
       1.78209152e-02, 4.39384812e-03, -7.63548166e-03, -3.63264815e-03,
       -8.22242815e-03, 9.54792835e-03, 7.92616233e-03, 6.87669963e-03,
       -3.10010836e-03, -2.13966575e-02, -4.24265570e-04,
       -1.31445723e-02, -5.05112717e-03, -1.63303595e-02, 4.37472714e-03,
       4.62890789e-03, -2.11212155e-03, -1.00391516e-02, -1.24777236e-03,
       6.33379351e-03, 4.29441920e-03, -7.47804390e-03, 9.98684485e-03,
       -4.85172542e-03, -5.66577166e-03, -1.20381536e-02,
       -3.18168453e-03, 1.22935488e-03, -2.50872388e-03, -7.28307199e-03,
       9.19928832e-04, -1.52384602e-02, 3.39004700e-03, 1.87356956e-02,
       -5.47266053e-03, -1.10359760e-02, -2.37676734e-03,
       -1.48162828e-03, 5.12454985e-03, 6.95604738e-03, -4.38982993e-03,
       7.80972559e-03, 2.13534245e-03, 9.53273196e-03, 1.21060570e-04,
       -7.82492198e-03, 8.43012985e-03, -8.07400234e-03, -1.31367601e-03,
       1.52629218e-04, -7.26856338e-03, 1.33238677e-02, -1.29758529e-02,
       8.54441721e-04, 2.65664328e-03, -8.93531926e-03, 5.65577438e-03,
       1.19143697e-02, 1.35857416e-02, 7.16564432e-03, 1.25785191e-02,
       1.12495059e-03, -6.75575063e-03, 1.12016527e-02, 5.69427572e-03,
       -4.63795336e-03, -1.47972570e-03, -1.32259857e-02,
       -1.83058940e-02, -1.70621127e-02, -1.21681846e-03, 3.74485319e-03,
       5.42436865e-05, -4.85050585e-03, -4.30257292e-03, -1.01405848e-02,
       -1.63404867e-02, 4.98086307e-03, -8.15105904e-03, 1.69013604e-03,
       -4.88046883e-03, 1.35584585e-02, -7.07088388e-04, -8.37215316e-03,
       -1.11782746e-02, -2.76883977e-04, 4.80481889e-03, -7.05750845e-03,
       -2.77348026e-03, 2.91654677e-03, 7.49937445e-03, 6.73974305e-03,
       7.36532442e-04, -1.07222283e-02, -4.00217017e-03, 1.62593145e-02,
       -8.90253577e-03, -1.00659020e-02, 1.05819665e-02, -1.00871408e-02,
       -9.82300844e-03, -1.21471826e-02, -1.54260136e-02,
       -2.57006045e-02, -8.55854712e-03, -7.80096464e-03,
       -7.99733959e-03, 7.16256537e-03, -1.14642852e-03, -1.16295759e-02,
       -1.94837246e-02, -1.26048904e-02, -1.08320946e-02, 9.96728707e-03,
       -1.45559916e-02, -5.18681901e-03, -4.73401597e-04,
       -7.67777720e-03, -2.61802715e-03, -2.69102282e-03, 6.63256133e-03,
       -9.94597841e-03, 1.76858134e-03, -2.08423901e-02, -1.02929007e-02,
       7.19552301e-03, -1.52625619e-02, -1.00254128e-02, -1.40003180e-02,
       1.13683995e-02, 1.49011854e-02, 1.88210793e-02, 4.21411684e-03,
       1.18251843e-02, 1.10276425e-02, -8.99461936e-03, -8.47191550e-04,
       -6.16232818e-03, -7.26078684e-03, -4.72482573e-03,
       -3.66482814e-03, -2.18085628e-02, 1.75670646e-02, -8.70869868e-03,
       2.29413877e-03, 7.23386370e-03, -7.81723391e-03, 1.14885420e-02,
       5.50120836e-03, -1.65457893e-02, 6.16849517e-04, 1.09202629e-02,
       -1.59898354e-03, -5.74179692e-03, -2.51166709e-03,
       -3.39493481e-03, 9.46040824e-03, 9.30757169e-03, -6.19378174e-03,
       -3.27224284e-03, 4.63028485e-03, 1.86681096e-03, 1.32724885e-02,
       1.36590786e-02, -1.95085083e-03, 1.66493692e-02, 8.11719615e-03,
       5.36293164e-03, 1.85938310e-02, 7.72136962e-03, 1.66010316e-02,
       1.39829135e-02, -4.86705173e-03, -1.91419180e-02, -8.72309599e-03,
       -6.52316632e-03, -1.91704128e-02, -3.48787085e-04,
       -1.59171736e-03, -1.39669422e-03, 1.90315815e-03, -6.06809556e-03,
       -7.59896310e-03, 1.89608242e-02, 8.46801698e-03, 8.97438824e-03,
       2.26359419e-03, -1.43106352e-03, -5.28251985e-03, -1.53085997e-03,
       7.54729845e-04, -2.17289627e-02, -2.05666218e-02, -8.17244966e-03,
       -4.52230824e-03, 1.13529805e-02, -1.05915722e-02, 1.01599051e-02,
       -4.78366902e-03, 4.17956151e-03, -2.77685048e-03, 9.42233205e-03,
       -6.53058232e-04, 5.21932216e-03, 8.80378881e-04, 4.70538298e-03,
       3.40918987e-03, 6.57457905e-03, -4.64506709e-04, -4.44567110e-03,
       -9.34245344e-03, 4.75163991e-03, -2.34089680e-02, 6.19416358e-04,
       1.25923310e-03, -1.05186822e-02, 1.18322261e-02, 1.56386811e-02,
       -6.98101660e-03, 1.57881866e-03, -8.23465642e-03, -3.09567805e-02,
       -1.33562461e-02, -3.40067805e-03, -1.47614349e-02, 7.61431269e-03,
       1.30492414e-03, 1.18993549e-02, 1.13500385e-02, 6.78999349e-03,
       -4.89043887e-05, -1.10601028e-02, -6.04877807e-03,
       -1.33336410e-02, 1.32794222e-02, -9.72765870e-03, -1.39383627e-02,
       7.07813492e-03, 2.08688490e-02, -1.40456180e-03, -2.42733676e-02,
       3.98903852e-03, 2.57963547e-03, 2.48638485e-02, 2.02993229e-02,
       -7.68476864e-04, -7.91939534e-03, -4.20202781e-03,
       -2.90466547e-02, -1.73719358e-02, -7.62731023e-03,
       -9.60125308e-03, 1.29983323e-02, -4.26166831e-03, 8.40661768e-03,
       -7.58115156e-03, 9.92059521e-03, -6.51941122e-03, -1.13253538e-02,
       -1.08796256e-02, -1.31874057e-02, 8.60147830e-03, -1.05939880e-02,
       -1.75236128e-02, -2.74633244e-03, 2.48039644e-02, -4.26069042e-03,
       1.53037170e-02, 3.68139637e-03, -1.54521195e-02, 1.71428826e-02,
       -6.70996774e-03, 7.15245679e-03, 7.92416744e-03, 1.18487356e-02,
       -1.28850983e-02, 2.53721923e-02, 1.72665361e-02, -2.83444617e-02,
       7.46626826e-03, 4.32700245e-03, -2.42405315e-03, -2.23608445e-02,
       -3.07570584e-03, 1.14675369e-02, -4.75157471e-03, 2.01991340e-03,
       -5.66893304e-03, 1.87988430e-02, 1.41766923e-03, -8.10113456e-03,
       -4.01652046e-03, 5.35727851e-03, 6.34685671e-03, 2.47885380e-03,
       -3.43530532e-03, 1.07060922e-02, 1.41132614e-02, 8.46374780e-03,
       -2.26304401e-04, -6.75701816e-03, -1.68322343e-02, 3.89980827e-03,
       -6.13747211e-03, 9.20580234e-03, -3.46792047e-03, 1.52164064e-02,
       8.54512583e-03, 8.55509285e-03, 1.99475344e-02, 6.67806622e-03,
       1.97297670e-02, -6.56421296e-03, 2.72726780e-03, 7.55005749e-03,
       3.72403697e-03, -1.01236440e-02, -1.78209376e-02, -1.00579951e-02,
       -4.91461949e-03, 9.27492417e-03, -8.81547015e-03, -1.52109377e-02,
       -8.72065779e-04, 7.24912295e-03, -6.49510231e-03, 4.57937457e-03,
       -1.14733391e-02, -2.07331013e-02, 6.19407790e-03, -3.00155836e-03,
       -1.23349531e-02, -7.95306545e-03, 5.01498394e-03, -1.69255547e-02,
       -8.67934525e-03, 1.48443179e-02, 1.93924811e-02, 2.29545012e-02,
       -1.37524633e-02, -9.63973068e-03, -2.01738277e-03, 8.00759252e-03,
       5.10906102e-03, -1.90081615e-02, 1.22407945e-02, -1.03196665e-03,
       1.28229335e-02, 1.93973538e-03, 1.21388212e-02, -1.06629636e-02,
       2.05001272e-02, 2.44726753e-03, -6.24842523e-03, 4.01083892e-03,
       -1.21053390e-03, -1.78305041e-02, 1.21979625e-03, -1.19335707e-02,
       -8.13059416e-03, -3.57011543e-03, -1.18719470e-02,
       -1.80359352e-02, -1.90505746e-03, -1.52672862e-03,
       -2.23201495e-02, 9.47794039e-03, 2.84723192e-03, -2.03223135e-02,
       -5.63704548e-03, 5.95968310e-03, -1.57338418e-02, 7.38308579e-03,
       2.36832700e-03, 1.44510507e-03, -4.47397633e-03, -1.26970056e-02,
       -2.46906709e-02, -1.17634665e-02, -7.20364787e-03, 1.17498613e-03,
       1.15951896e-02, 6.34524552e-03, -9.30535048e-03, 1.20075401e-02,
       -1.00567359e-02, -1.63932070e-02, -4.87010879e-03,
       -1.46450046e-02, -2.03940496e-02, 1.78958790e-03, 2.14174259e-02,
       -2.57679876e-02, -1.17618144e-02, -8.64327326e-03,
       -1.62300351e-03, 9.14055947e-03, 1.11631723e-02, 1.11603271e-02,
       5.75404288e-03, -1.86319987e-03, -2.42312104e-02, -9.82200913e-03,
       -1.84330922e-02, -1.22818099e-02, -5.17035229e-03,
       -1.40360752e-02, -1.08478293e-02, 1.27194589e-03, 1.28072593e-02,
       -8.37064174e-04, 1.98589452e-03, -1.48627926e-02, -4.77978843e-04,
       -1.71050907e-03, 6.47745794e-03, 2.41236314e-02, 5.00764791e-03,
       5.06723672e-03, 1.42334849e-02, -3.01019172e-04, -1.71456730e-03,
       6.07432099e-04, 1.31818224e-02, -1.27242791e-04, -5.04651619e-03,
       2.43638754e-02, -2.71018036e-03, 1.55756492e-02, 8.43825098e-03,
       6.08203351e-04, 1.28908129e-02, 1.05552422e-02, -7.24124769e-03,
       -8.74036457e-03, 1.49199681e-04, -1.39153292e-02, -5.96484169e-03,
       -1.65765118e-02, 9.69853532e-03, 5.69051877e-03, 1.24026276e-03,
       1.68083552e-02, -1.47218751e-02, 9.54254624e-03, 1.92107260e-02,
       3.23384143e-02, 7.24093569e-03, -1.22519145e-02, -5.29437093e-03,
       1.31001510e-02, 9.74997878e-03, -3.13897064e-04, 1.30016170e-02,
       -1.23417908e-02, -9.89465974e-04, -5.17364033e-03,
       -6.23320881e-03, -1.54094584e-02, 9.72732145e-04, 3.44276172e-03,
       -1.68793707e-03, 4.78643458e-03, -3.94755835e-03, 1.20424954e-02,
       -1.83235593e-02, 1.33487005e-02, 1.03577869e-02, -8.30971450e-03,
       -2.46033468e-03, -6.39655022e-03, 2.96075153e-03, 2.15484831e-03,
       1.32594758e-03, -1.37862209e-02, 1.09240422e-02, 3.03128618e-03,
       8.78310204e-03, 6.31313073e-03, -4.93461033e-03, 3.94289987e-03,
       -1.77461486e-02, 1.25952847e-02, 2.60573602e-03, 4.50305961e-04,
       -1.09337773e-02, 1.93664189e-02, -3.36661376e-03, -4.12196340e-03,
       1.11836903e-02, -2.28385814e-03, 1.03084343e-02, -9.60041396e-03,
       5.51387668e-03, 1.68613798e-03, 2.29146652e-04, 1.22857979e-02,
       -6.91863708e-03, -4.34105750e-03, 9.40807257e-03, -1.04373256e-02,
       -5.43078454e-03, 1.21156657e-02, -1.71780563e-03, -2.75989319e-03,
       1.48178963e-02, 7.27069518e-03, 7.35871354e-03, -8.92243627e-03,
       3.24049965e-02, 2.44128564e-03, 6.17034850e-04, -7.31219118e-03,
       1.03165992e-02, 3.24880192e-03, 3.98631953e-03, 1.15686068e-02,
       1.49424495e-02, -1.90653000e-02, -4.53301799e-03, 2.43938342e-03,
       -1.39418207e-02, -4.94234078e-03, 1.86936569e-03, -2.79487181e-03,
       2.54543708e-03, 4.42436198e-03, -2.15361622e-04, 1.10131968e-03,
       4.52298345e-03, -1.14739249e-02, 3.23905796e-03, -4.68572276e-03,
       -4.46460582e-03, -1.99776590e-02, -2.46298816e-02, 1.32611888e-02,
       -4.79729380e-03, -2.31769681e-03, 7.28677819e-03, 7.94265419e-03,
       4.49286634e-03, -5.37220063e-03, -1.28554450e-02, -1.75251234e-02,
       -1.02051906e-03, -8.74403704e-05, -5.21251932e-03, 1.32968901e-02,
       -6.78803306e-04, -5.00196265e-03, -9.84122884e-03,
       -1.11199087e-02, -1.16412593e-02, 1.04765482e-02, 4.25981591e-03,
       -4.01842687e-03, 1.23582443e-03, 1.68789476e-02, 1.13445912e-02,
       -8.09213147e-03, 4.19703498e-03, 2.64024939e-02, -1.92919525e-03,
       1.76455863e-02, -4.97023202e-03, 1.16937431e-02, -1.00109391e-02,
       9.11062118e-03, -7.93032907e-03, -1.08549558e-02, -3.55282309e-03,
       2.23306729e-03, 2.90845375e-04, -9.65361204e-03, -5.79725066e-03,
       -9.23450664e-03, -1.48262912e-02, 1.96532649e-03, 2.55255848e-02,
       -2.34606690e-04, -1.50578527e-03, 4.36475733e-03, -3.45351174e-03,
       -1.28371585e-02, -4.05241689e-03, 4.73543536e-03, -1.06353080e-02,
       3.10241710e-03, 2.26324052e-02, -5.32087171e-03, 9.38661397e-03,
       -6.93321740e-03, -1.03017595e-02, 7.54005741e-03, 2.23632203e-03,
       -3.61641543e-03, 6.39926130e-03, 9.05886292e-03, 2.96209182e-04,
       -6.76543568e-04, -1.44831429e-03, -6.86875684e-03, 5.57334023e-03,
       -1.72613151e-02, -3.41415289e-03, -3.52916052e-03,
       -2.57307608e-02, -5.36988582e-03, 1.07738962e-02, 6.93587773e-03,
       -5.88109437e-03, 9.13730077e-03, 8.56781285e-03, 4.00214968e-03,
       -6.98289135e-03, 1.06362801e-03, -3.11992853e-03, 1.00975549e-02,
       2.78053456e-03, 1.05404295e-02, 8.93237721e-03, -2.51402631e-02,
       -1.61165297e-02, -1.60427485e-02, 2.30781967e-03, 2.32856534e-03,
       3.92824557e-04, 4.34427708e-03, -1.31994411e-02, 2.32243519e-02,
       -8.36845674e-03, -8.76872893e-03, -2.97238305e-03, 1.86509844e-02,
       6.81900652e-03, 9.43685230e-03, -5.26554417e-03, -6.88443659e-03,
       -1.05681596e-02, -2.17111968e-03, -1.23500377e-02, 1.11512626e-02,
       -6.35943143e-03, 2.10713083e-03, -2.08407029e-04, 2.44301744e-03,
       -8.68129451e-03, -2.88048293e-03, 2.94783898e-03, -9.85508226e-03,
       2.15463955e-02, 8.87526199e-03, 4.80222935e-03, 4.32966510e-03,
       6.85948087e-03, -2.85986974e-03, 8.18225555e-03, 3.29550030e-03,
       -1.44973136e-02, -9.48542077e-03, -6.81409007e-03,
       -2.22426467e-03, 4.74724360e-03, -1.23456661e-02, 1.33130350e-03,
       8.03820975e-03, 2.39810068e-02, -6.22018892e-03, -3.79147544e-03,
       1.72010309e-03, -8.31258483e-03, 8.50334391e-03, 6.24541426e-03,
       -1.27190840e-03, -2.44852691e-03, -1.49405599e-02,
       -1.40906218e-02, 3.29891453e-03, 5.71676064e-03, -4.05375939e-03,
       -7.99788348e-03, -6.25317916e-03, -1.92999037e-03,
       -2.02222815e-04, 2.50665797e-03, 1.17609685e-03, 4.26268345e-03,
       1.57036236e-03, 5.51260868e-03, 3.81094142e-04, -1.97755415e-02,
       3.36371758e-03, 1.53597742e-02, -4.28660400e-03, -9.06189810e-03,
       -1.33460751e-02, -6.89041428e-03, -1.18740955e-02,
       -3.54380673e-03, -2.61104666e-03, 4.66383575e-03, -5.38854115e-03,
       7.29959738e-03, 1.02367261e-02, 1.40124839e-02, 7.07876123e-03,
       2.43538595e-03, 7.25549040e-03, 4.84996568e-03, -6.91094249e-03,
       -8.00854713e-03, -2.08894373e-03, -1.51267685e-02,
       -4.98736417e-03, -5.31810627e-04, 4.30409238e-03, 7.38378009e-03,
       -7.26315659e-03, -7.01960456e-03, -8.41007568e-03,
       -1.28597883e-03, -6.22577965e-03, -6.46487996e-03,
       -1.01626851e-02, 1.16314916e-02, 2.00997083e-03, 5.61726699e-03,
       -4.64264117e-03, 4.38713422e-03, 1.54623101e-02, -5.28506795e-03,
       2.17134021e-02, 1.85706075e-02, -1.46262450e-02, 1.01317298e-02,
       -1.46925021e-02, 8.78815074e-03, -6.08499907e-03, -2.79187318e-03,
       -9.28942289e-04, -3.28880572e-03, 1.82846095e-02, 5.57486340e-03,
       6.06444804e-03, -2.69607618e-03, 5.69671625e-03, 2.59601395e-03,
       -3.04163713e-03, 5.79647161e-03, -1.37727158e-02, -3.10869645e-02,
       -1.03465691e-02, 1.82400795e-03, -2.57933303e-03, -1.23195322e-02,
       7.48532079e-03, -6.72738766e-03, 2.71781813e-04, -7.07162125e-03,
       -1.50848459e-03, 7.59708462e-03, 1.73689984e-03, -3.27656115e-03,
       -4.47849277e-03, 8.27972312e-03, -1.08546973e-03, 8.58778693e-03,
       -4.37995978e-03, -6.40323560e-04, -2.09394321e-02,
       -1.01267425e-02, 2.97193852e-04, 5.28950570e-03, 8.52161925e-03,
       1.75500903e-02, 4.95253876e-03, 1.77327525e-02, -1.11786590e-03,
       -3.59644298e-03, 8.02335143e-03, 8.43612198e-03, 4.34060674e-03,
       -1.47152692e-03, -7.33875157e-03, -1.75309163e-02,
       -1.56670269e-02, -3.36565776e-03, -1.14021646e-02, 8.18246137e-03,
       -4.28004004e-03, -1.11816907e-02, 8.25912226e-03, -3.10482830e-03,
       -5.04509313e-03, 6.81658974e-03, 1.61915133e-03, -2.03660410e-02,
       1.17573962e-02, 9.24428459e-03, -1.28094479e-02, -2.25291569e-02,
       7.42647890e-03, -7.11938553e-03, -5.58364671e-03, 7.22435489e-03,
       2.75681983e-03, -3.59846745e-03, 1.84194883e-03, -6.89400360e-03,
       -2.81185634e-03, 8.31380766e-03, 2.06639571e-03, -9.87410825e-03,
       8.53304844e-03, 9.29622166e-03, 8.54789093e-03, 1.91451586e-03,
       8.03395733e-03, -3.73215508e-03, 2.85928347e-03, 1.45523529e-02,
       8.89784191e-03, -1.64787676e-02, 1.62788073e-03, -3.50622390e-03,
       -1.71502994e-03, -7.30183534e-03, -9.69709456e-03,
       -2.44487030e-03, 3.10829119e-03, -1.35916164e-02, -1.53396921e-02,
       1.20862143e-03, -7.52697652e-03, -1.43797346e-03, 7.95495044e-03,
       1.05071208e-02, 1.12100486e-02, 3.31364549e-03, -4.21717437e-03,
       1.81598198e-02, 1.02017876e-02, 7.54290260e-03, -2.77341204e-03,
       1.85081530e-02, -6.13862043e-03, -6.69377623e-03, -7.51058469e-05,
       -1.91765651e-02, 2.08983570e-02, 3.65209649e-03, 2.45031691e-03,
       1.42916739e-02, 7.36789312e-03, -9.43406206e-03, 4.72437683e-03,
       1.97586603e-03, 3.10831098e-03, 7.59644760e-03, -1.55638931e-02,
       -2.64898315e-02, 6.03291113e-03, 1.57023892e-02, -5.06777735e-03,
       1.79218799e-02, -1.00379204e-02, -2.34013959e-03, 6.43946137e-03,
       -2.14672461e-03, -1.71417948e-02, 1.99716631e-02, -3.24219558e-03,
       -3.56577593e-03, -3.54682258e-03, -3.36182094e-03,
       -7.63654523e-03, 8.29640217e-03, -1.65612437e-02, -1.45816617e-02,
       3.79467825e-03, -4.12124908e-03, -6.15782430e-03, 1.12961745e-02,
       2.04939817e-04, 1.60176642e-02, 1.69800427e-02, -6.03149703e-04,
       -3.80096072e-03, -1.17709639e-03, -5.02302172e-03,
       -4.19571204e-03, 9.99416225e-03, -1.48305455e-02, -5.04388614e-03,
       -1.08594522e-02, -1.25587471e-02, -2.29524495e-03, 3.35121946e-03,
       -1.30421128e-02, -9.80397593e-03, -5.84836816e-03,
       -1.94929715e-04, -2.23540068e-02, -2.46639363e-02,
       -2.13012826e-02, 5.57601172e-03, 9.46411118e-03, -4.46892017e-03,
       -6.92482898e-03, 2.91510904e-03, -1.07174302e-02, 6.90002413e-03,
       2.11191177e-03, -2.23342441e-02, -2.27284338e-03, 7.67920027e-03,
       -9.01538692e-03, 2.12284294e-03, 2.59792432e-02, -2.71740369e-03,
       6.58087782e-04, -1.53501667e-02, 9.23603214e-03, 2.47625988e-02,
       2.36203447e-02, 5.90194343e-03, -4.09943564e-03, -1.76213793e-02,
       9.36102762e-04, -2.35409080e-03, 1.95060065e-03, 8.45617801e-03,
       1.05270185e-03, -1.05886310e-02, 7.62526039e-03, -9.84837022e-03,
       -9.46224551e-04, 1.09787332e-03, 7.39852199e-03, -3.30982171e-02,
       9.25017428e-03, 3.24754696e-03, -4.87066712e-03, 4.79057059e-03,
       -9.71450657e-03, 8.61015357e-03, 8.92695505e-03, 1.54815661e-02,
       1.48686981e-02, 1.45081626e-02, -1.70203745e-02, 6.64483663e-03,
       7.65183242e-03, -3.81447305e-03, 4.92298789e-03, 5.15087740e-03,
       7.15585053e-03, -8.70791078e-03, 4.16521309e-03, -8.03435035e-03,
       7.85162393e-03, 1.40437596e-02, -1.11116529e+00 ]
