%YAML:1.0
---
myHogDector: !!opencv-object-detector-hog
   winSize: [ 64, 128 ]
   blockSize: [ 16, 16 ]
   blockStride: [ 8, 8 ]
   cellSize: [ 8, 8 ]
   nbins: 9
   derivAperture: 1
   winSigma: 4.
   histogramNormType: 0
   L2HysThreshold: 2.0000000000000001e-01
   gammaCorrection: 1
   nlevels: 64
   signedGradient: 0
   SVMDetector: [ -1.36751300e-02, 1.22405579e-02, -1.97962355e-02,
       1.53808529e-02, 4.99822339e-03, 1.80180272e-04, 2.66105160e-02,
       6.53497502e-03, -2.28350679e-03, 4.27606329e-03, -1.63162053e-02,
       -3.58731598e-02, -1.87770557e-02, -2.64764745e-02,
       -2.60287337e-02, 1.40104014e-02, -5.67825558e-03, 2.75381171e-04,
       -3.08303051e-02, -3.15408334e-02, -3.05786245e-02, 3.91465239e-03,
       8.83315504e-03, 6.15269095e-02, 5.36650270e-02, 2.01718286e-02,
       -1.92473885e-02, -2.88867094e-02, -3.87930460e-02,
       -3.52558717e-02, -7.25818425e-03, -1.80677790e-02, 1.60509609e-02,
       3.01561225e-02, 1.16251465e-02, -2.78441459e-02, -6.13240106e-03,
       -1.66987032e-02, -2.12034117e-02, -2.33356701e-03,
       -3.74749042e-02, -2.80766152e-02, 1.71940103e-02, -1.33489957e-02,
       -5.49907191e-03, -2.61419993e-02, -5.38108172e-03,
       -2.37369724e-02, 6.94138929e-03, -5.98878413e-03, 1.77840609e-02,
       1.66806318e-02, -3.98187973e-02, -2.47644279e-02, -1.77460387e-02,
       -1.86339375e-02, -1.58405844e-02, 4.51286184e-03, -1.62510760e-03,
       2.50981026e-03, 2.55696122e-02, -1.32399388e-02, -1.29004484e-02,
       -3.14172097e-02, -1.60794351e-02, 1.91224657e-03, -4.27310960e-03,
       -1.07054021e-02, 4.02089208e-02, 2.15665232e-02, -2.34584231e-03,
       -2.01097387e-03, -7.89342355e-03, -2.82877404e-03,
       -7.03231199e-03, -1.73719060e-02, 3.20052216e-03, -5.01536531e-03,
       -1.64803732e-02, -3.62426527e-02, -3.18496153e-02,
       -4.92611714e-03, -2.88530905e-02, -1.91690587e-02,
       -3.67323942e-02, 1.73622498e-03, 2.34448668e-02, -7.56909698e-03,
       -2.39479803e-02, 5.61917732e-05, -2.60226186e-02, -1.60566403e-03,
       1.17610227e-02, 8.81906319e-03, -3.03438841e-03, 1.78371761e-02,
       1.19173694e-02, 1.45363174e-02, -1.29637746e-02, -9.59356874e-03,
       -5.68000926e-03, 1.55416112e-02, 1.58482709e-03, -1.36125367e-03,
       6.71838084e-03, -1.02536660e-02, -3.83190438e-03, -1.85991395e-02,
       -1.68594392e-03, -1.09652868e-02, 7.93782622e-03, -9.98539734e-04,
       -1.35941207e-02, 6.56200666e-03, -1.15769012e-02, -3.24817188e-02,
       -6.91901427e-03, -7.06450082e-03, 1.73363537e-02, 3.34143750e-02,
       4.95774820e-02, 1.54311601e-02, -5.70080895e-03, -2.19673710e-03,
       -2.22863667e-02, -1.15394061e-02, -2.30329819e-02,
       -2.04046839e-03, 2.97430847e-02, 1.63586941e-02, 5.45476470e-03,
       1.61095466e-02, -8.97346437e-03, -1.06680114e-02, -3.22635584e-02,
       -1.59911029e-02, 9.14576650e-03, 3.43892351e-02, 3.32463533e-02,
       2.29487550e-02, 2.30684020e-02, 3.99824977e-03, -1.51190092e-03,
       -1.50504513e-02, -1.05260201e-02, 1.16084917e-02, 2.19746232e-02,
       1.51336882e-02, -2.78813168e-02, -2.04154588e-02, -1.97469164e-02,
       -1.55125326e-02, -4.54032794e-03, -8.16272758e-03, 8.12689681e-03,
       2.12420672e-02, 4.78925416e-03, 1.09978346e-02, 2.34244075e-02,
       1.47308474e-02, 2.67934659e-03, -1.98018141e-02, -1.27455955e-02,
       -1.39559654e-03, 1.06992014e-02, 1.36516700e-02, -3.12537588e-02,
       -7.92103913e-03, 1.62985176e-03, -1.58918668e-02, -1.84824243e-02,
       -6.92331418e-03, -7.72815896e-03, 2.09893845e-02, 3.26473229e-02,
       5.64421620e-03, 2.16845460e-02, 2.46906020e-02, 3.20601743e-03,
       1.70932412e-02, 1.16921542e-02, 1.11795831e-02, 1.30773606e-02,
       -3.86000797e-03, -3.89764155e-03, -9.30654071e-03, 2.74193799e-03,
       2.99389940e-03, -1.12231905e-02, 1.77834202e-02, 8.80561676e-03,
       1.34360306e-02, 1.15652597e-02, 1.29789766e-02, 7.67237600e-03,
       4.89984266e-02, 2.23225616e-02, -3.80918453e-03, -6.07308839e-03,
       4.47882514e-04, -2.67840747e-04, -2.42224559e-02, -3.50020528e-02,
       -2.68424023e-02, 4.85633005e-04, -1.89729072e-02, -5.33587113e-03,
       -8.28560069e-03, 1.83021370e-02, 1.43088382e-02, 5.08427015e-03,
       8.45536590e-03, -3.57114407e-03, 1.55683542e-02, -4.74812323e-03,
       -1.31773371e-02, -1.27545663e-03, -4.66113212e-03, 3.63788218e-04,
       -3.32338968e-03, -3.27516422e-02, 1.75374025e-03, 3.01946290e-02,
       3.12482473e-02, -2.64492109e-02, -3.45609151e-02, -5.40883020e-02,
       -1.91291813e-02, -1.93204626e-03, 6.85418118e-03, -1.81111209e-02,
       3.67038026e-02, 5.00252061e-02, -1.91063657e-02, -5.09031210e-03,
       3.28438100e-03, 2.85437219e-02, 1.75806843e-02, -1.25789866e-02,
       -1.36445286e-02, -5.04436716e-03, -4.87920782e-03,
       -1.01035815e-02, -1.32034170e-02, -2.08972413e-02, 1.72022004e-02,
       2.74196565e-02, 1.99798755e-02, -7.63476267e-03, 2.17928905e-02,
       1.95639767e-02, -5.32261329e-03, -1.64022818e-02, -5.69388084e-02,
       4.92848363e-03, 2.79239323e-02, 9.70105990e-04, -3.39903459e-02,
       3.56701240e-02, 4.75692488e-02, 1.57439373e-02, -1.23799276e-02,
       -1.77001394e-02, 1.58529375e-02, 1.19887963e-02, -1.39589515e-02,
       -1.08066062e-02, 3.72546390e-02, 2.20741928e-02, 4.32895310e-03,
       -2.51045614e-03, -2.08128653e-02, 5.21809468e-03, 2.55194083e-02,
       1.41492644e-02, -1.84576884e-02, -4.09897737e-04, 3.10450830e-02,
       1.72095764e-02, 4.05799504e-03, -9.94489994e-04, 1.29956054e-02,
       -5.10655856e-03, 1.35642160e-02, 6.86488301e-03, 2.51269005e-02,
       2.03777160e-02, 1.61975380e-02, -4.30920022e-03, 1.10007469e-02,
       7.85309914e-03, -8.61898623e-03, -1.33926226e-02, 8.19211826e-03,
       3.07284221e-02, 1.20091233e-02, -9.13222414e-03, 1.78015995e-04,
       1.41195422e-02, 1.56866647e-02, -7.92874675e-03, 3.11564258e-03,
       3.71759161e-02, -2.55558500e-03, -1.24710361e-02, 4.15971316e-03,
       -5.84958494e-03, -4.65040188e-03, 7.77335232e-03, 1.68019149e-03,
       5.97357471e-03, 6.38495293e-03, -5.54069271e-03, -1.68684106e-02,
       -3.02192336e-03, -3.59256528e-02, -5.79646602e-03, 2.56467387e-02,
       1.42125841e-02, 1.54832685e-02, 1.75176580e-02, -1.07868516e-03,
       -1.95505619e-02, -7.00553320e-03, -2.81746004e-04, 8.22649058e-03,
       -2.40432727e-03, -2.50263549e-02, -4.78115715e-02,
       -2.13687569e-02, -4.13399860e-02, -2.33074725e-02,
       -4.68286127e-03, 1.35046374e-02, 2.19630580e-02, 1.56297982e-02,
       -1.17740789e-02, -2.57361401e-02, 1.42431669e-02, -7.96937291e-03,
       -2.02038381e-02, 6.84586470e-04, -2.76886169e-02, -3.78271448e-03,
       -2.56382301e-03, -7.45624630e-03, -4.25665232e-04, 8.09393730e-03,
       -8.85658152e-03, -2.53693871e-02, -8.31114873e-03, 8.76595825e-03,
       2.64972597e-02, 1.31346546e-02, 1.90902352e-02, 8.26754514e-03,
       1.31353373e-02, -5.56047657e-04, -5.82117261e-03, -2.71283789e-04,
       1.41688986e-02, 2.59915031e-02, 3.66053507e-02, -5.32216672e-03,
       -5.23994118e-02, 1.79875977e-02, 8.07752833e-03, -8.83532874e-03,
       6.63660048e-03, -6.77397009e-03, 1.75924953e-02, 3.93863805e-02,
       1.48750897e-02, -2.43608542e-02, -1.35581652e-02, -3.50654684e-03,
       -1.80690847e-02, -2.76364796e-02, 8.87855142e-03, 3.20960060e-02,
       2.24628672e-02, -9.61838197e-03, -2.52558459e-02, -5.35247196e-03,
       5.63120656e-03, 5.71161602e-03, -1.24272634e-03, -3.09613883e-03,
       1.36799971e-02, 1.92911867e-02, -6.94841938e-03, -9.18738171e-03,
       -4.20702342e-03, 9.79422219e-03, -3.78142274e-03, -2.00004000e-02,
       -8.15534126e-03, 2.34029815e-02, 2.31848843e-02, -8.45718477e-03,
       -1.73671134e-02, -1.48991598e-02, 1.14302561e-02, -1.09328115e-02,
       -3.44574153e-02, 2.61957999e-02, 3.26323360e-02, 1.36958910e-02,
       -2.10395567e-02, -2.94280909e-02, 4.48971754e-03, 3.90264541e-02,
       1.36642093e-02, 9.58440546e-03, -2.25628484e-02, 1.28410934e-02,
       1.07417395e-02, -3.67313772e-02, -2.93182358e-02, -1.00278936e-03,
       2.50428095e-02, 5.39439218e-03, -1.72901694e-02, 3.32418224e-03,
       2.46902108e-02, 2.15722118e-02, -1.90157462e-02, -2.91397981e-03,
       1.81928538e-02, 2.35280115e-02, 1.63308848e-02, 8.58649239e-03,
       1.71510223e-02, 1.45203285e-02, -1.23924436e-02, -5.10578603e-02,
       -5.34724630e-03, 9.91386641e-03, 1.97070278e-02, 2.37929914e-02,
       1.78509559e-02, -5.18115191e-03, 4.76382120e-04, -3.15843662e-03,
       -1.71749741e-02, 1.78314820e-02, 3.88814928e-03, 1.89579818e-02,
       2.73801684e-02, 3.66102788e-04, -4.60501853e-03, -2.03283131e-03,
       1.90529712e-02, -6.70973957e-03, -1.31965028e-02, 9.31086205e-03,
       -2.10465281e-03, 6.48868736e-03, 1.22101104e-03, -1.29934298e-02,
       1.14121509e-03, 2.25274283e-02, -8.42506532e-03, -8.55247583e-03,
       7.69695221e-03, -2.42364407e-03, 1.80472212e-03, 5.57168014e-03,
       -1.47036128e-02, -1.37655558e-02, 1.49993255e-04, -4.55351174e-03,
       -4.97894129e-03, 1.84996165e-02, -1.21246399e-02, 9.84833203e-03,
       -1.09104384e-02, -2.03730594e-02, 7.64925312e-03, 1.48521895e-02,
       -7.47692818e-03, -4.33717202e-03, -3.51962924e-04,
       -3.51143582e-03, -1.20671769e-03, -2.13246047e-02,
       -9.41878557e-03, 5.03483415e-03, 1.43567370e-02, 1.40388142e-02,
       -1.84495859e-02, 3.14311683e-03, -3.05945687e-02, -2.56358553e-02,
       -1.19680241e-02, -1.36742815e-02, 1.71584524e-02, 1.17302444e-02,
       1.97684318e-02, 9.40844300e-04, 1.18299937e-02, -2.68141348e-02,
       -3.10809314e-02, -5.98252425e-03, -1.93617977e-02, 1.38750216e-02,
       1.46702863e-02, 1.05771273e-02, -1.73607096e-02, 2.19221413e-02,
       1.24171413e-02, 2.03551501e-02, -3.40457354e-03, -1.93906128e-02,
       1.39194168e-02, 1.93973712e-03, -3.00164074e-02, -4.32270998e-03,
       -1.84120256e-02, 1.61568653e-02, 2.30583567e-02, -1.29264491e-02,
       -1.50342202e-02, 1.81096478e-03, 1.22778099e-02, 3.35020870e-02,
       -2.16334183e-02, 3.34230587e-02, -1.43099658e-03, -2.69797049e-03,
       -1.65841531e-03, -9.36701801e-03, -4.38307645e-03, 2.19273381e-02,
       2.53706705e-02, -1.01832021e-02, 1.62572376e-02, 1.70560163e-02,
       1.41290296e-02, -1.73878670e-02, -5.06965965e-02, -4.02592756e-02,
       -4.14364189e-02, -7.92492181e-03, -7.25551415e-03, 4.84884270e-02,
       4.94925566e-02, 2.40740888e-02, -2.20527705e-02, -4.31952924e-02,
       -1.67566687e-02, -3.57497483e-02, -1.58486888e-02,
       -2.55658757e-02, 4.49597428e-04, 4.44216654e-02, 6.82495534e-03,
       -4.13547494e-02, -2.95267440e-02, -1.88086890e-02,
       -2.37015486e-02, 1.45854773e-02, 4.39522322e-03, 1.91093106e-02,
       8.03302228e-03, 1.28749721e-02, -2.23969072e-02, -2.96360832e-02,
       -6.89035282e-03, -5.76442759e-03, 4.55751456e-03, -1.22737177e-02,
       1.70796718e-02, 3.49695385e-02, 1.42304786e-02, -2.44624373e-02,
       -2.84067262e-02, -3.58097767e-03, -1.92134324e-02,
       -2.53067948e-02, -2.11814307e-02, 7.96376914e-03, 2.19460521e-02,
       -8.30352027e-03, -3.53904739e-02, -4.19529155e-02,
       -8.42428580e-03, 3.79125791e-04, 3.60763632e-03, -7.99745321e-03,
       2.66643111e-02, -1.11520002e-02, 4.08835476e-03, -2.16831919e-02,
       5.36383269e-03, 3.31006572e-03, -1.57546308e-02, -2.13662665e-02,
       -2.48550568e-02, 1.24155981e-02, 3.16435061e-02, 1.26432022e-02,
       -1.79067757e-02, -1.05959764e-02, 7.92177487e-03, -1.11731868e-02,
       1.86186172e-02, -2.48158704e-02, 2.84015667e-02, 3.03284451e-03,
       1.19996173e-02, -2.14632023e-02, -2.84282267e-02, -8.87908041e-03,
       -1.27882026e-02, -4.37900191e-03, -1.60277318e-02, 1.36441719e-02,
       -1.96152702e-02, 1.15451030e-02, -7.11658178e-03, -1.75634325e-02,
       -8.77391081e-03, -3.52099910e-03, 2.36251182e-03, -2.34842207e-02,
       -2.35308483e-02, -1.13680316e-02, -2.82799383e-03,
       -2.12472342e-02, -8.63545947e-03, -2.85271346e-03,
       -1.67821385e-02, 6.08068099e-03, -3.17854472e-02, -2.66864733e-03,
       -1.77791771e-02, 1.22546908e-02, 1.34976988e-03, -1.45472838e-02,
       -2.30758470e-02, -6.41819090e-03, 1.09400954e-02, -2.97440421e-02,
       -2.01749075e-02, -6.69171521e-03, 5.15565649e-03, -7.60942185e-03,
       -2.66771745e-02, 3.43088037e-03, 1.25360964e-02, 3.24497838e-03,
       -4.74763364e-02, -7.53833586e-03, -1.63404886e-02,
       -7.57114356e-03, -3.38363014e-02, -6.90018153e-03,
       -3.42015154e-03, -1.59142148e-02, -1.96135305e-02,
       -4.85964492e-03, 1.86781194e-02, 5.72637608e-03, 9.90372151e-04,
       2.96165963e-04, -4.62022377e-03, 8.03304650e-03, 3.83639499e-03,
       9.08439793e-03, -3.25767957e-02, -1.02803167e-02, -8.27824842e-05,
       -7.96235260e-03, -4.15640511e-03, 1.48837930e-02, 3.56537923e-02,
       -1.37363176e-03, -1.88242868e-02, 2.63873953e-02, 4.22833264e-02,
       2.08573751e-02, 7.06794113e-03, 2.14731563e-02, -1.64223649e-02,
       -1.47840809e-02, -1.62852407e-02, -2.54674181e-02,
       -3.30210738e-02, -9.61821247e-03, 1.73010211e-02, -6.09376607e-03,
       -4.84127831e-03, -2.81157680e-02, -1.20997438e-02,
       -2.64603877e-03, -1.45291293e-03, -1.83529854e-02, 5.47549501e-03,
       2.14034673e-02, -1.72640495e-02, -5.59107913e-03, 1.85922161e-02,
       5.77063253e-03, -8.61175172e-03, -3.65040749e-02, 7.68276816e-03,
       4.85263532e-03, 3.03423014e-02, 4.50424151e-03, 3.86751108e-02,
       -1.09569496e-02, 2.69950391e-03, 7.66661344e-03, -8.93108547e-03,
       3.87365893e-02, 1.65798515e-02, 2.17542686e-02, -2.86342502e-02,
       1.24852424e-02, -1.12019042e-02, 6.71230210e-03, -1.33184879e-03,
       -2.60601528e-02, -5.71104139e-02, -3.49422991e-02,
       -7.55919516e-03, -1.44342259e-02, -3.51056596e-03,
       -2.07774229e-02, -1.94831274e-03, -2.53480102e-04,
       -1.88222919e-02, 5.82858408e-03, 8.07449874e-03, -5.21147100e-04,
       6.97614951e-03, -4.58183372e-03, 6.20081136e-03, 3.62005550e-03,
       2.25317362e-03, 9.13349725e-03, 1.56207466e-02, -4.12890874e-03,
       -1.80018824e-02, -2.05181800e-02, 5.82648767e-03, 4.11403089e-05,
       -2.35259682e-02, 9.54715721e-03, 1.98490582e-02, 4.46919128e-02,
       1.24502713e-02, -3.12124519e-03, 2.96937265e-02, 9.31254216e-03,
       -6.95206877e-03, 8.88721086e-03, 2.53103133e-02, -1.31359079e-03,
       -2.79384814e-02, 4.86147683e-03, -4.24357019e-02, -2.31482014e-02,
       -7.41259102e-03, -6.08951319e-03, -1.74744762e-02, 1.91290919e-02,
       2.58701611e-02, -1.76208299e-02, -1.12561304e-02, -2.14167610e-02,
       -1.76365487e-02, -3.94041743e-03, 1.07076932e-02, -1.45919388e-02,
       -1.38118463e-02, 2.93681951e-04, -1.30656734e-02, -2.38863542e-03,
       -2.62273997e-02, -9.23750550e-03, -4.37392108e-03, 1.32500315e-02,
       5.16047794e-03, 1.07887061e-02, 2.18427721e-02, -1.92260016e-02,
       -1.55204171e-02, -2.77585089e-02, -1.75977983e-02,
       -6.94666523e-04, 5.23859030e-03, -2.17129402e-02, -3.60944006e-03,
       4.26347787e-03, -7.69785699e-03, -1.24149658e-02, -2.96072159e-02,
       9.43039730e-03, 1.19512798e-02, -1.37204463e-02, -2.17399169e-02,
       -1.18824095e-02, -1.31427525e-02, 2.20359745e-03, 2.72578374e-03,
       -1.62284672e-02, 3.92755261e-03, 8.91511515e-03, 1.79728009e-02,
       -9.11303982e-03, -6.56806119e-03, 1.02566378e-02, -2.31983308e-02,
       -8.52472801e-03, -1.82029158e-02, 1.31963911e-02, 2.97038443e-03,
       -1.23119326e-02, -2.05553491e-02, 6.00213371e-03, -7.22029386e-03,
       8.98395292e-03, 2.78182682e-02, -5.36736334e-03, 1.59028247e-02,
       1.61169078e-02, -2.47661024e-02, -2.86222324e-02, -5.62675204e-03,
       -2.08122321e-04, -2.96934284e-02, -2.09465679e-02,
       -2.59884428e-02, -2.27501132e-02, -9.08035878e-03,
       -1.47960009e-02, -3.23196724e-02, 1.33819354e-03, -1.21291110e-03,
       -2.12165173e-02, -7.01780478e-03, -9.83523112e-03,
       -2.34710649e-02, -1.36815608e-02, 1.69792995e-02, -3.65522294e-03,
       4.84217424e-03, -9.58904438e-03, -1.24748638e-02, 1.12738041e-02,
       -5.53602818e-03, 3.78682627e-04, 6.55710604e-03, 2.92140450e-02,
       -1.33214146e-02, 9.82576329e-03, 6.80250721e-03, -3.23416591e-02,
       4.19582147e-03, 1.54118463e-02, 1.61596723e-02, 1.34174889e-02,
       -1.00962361e-02, -1.74962059e-02, -1.72314811e-02,
       -8.83665867e-03, -2.17748471e-02, -2.34380774e-02,
       -1.01694884e-02, -6.02427172e-03, -1.38545698e-02,
       -1.07025234e-02, -1.16011612e-02, -1.15409531e-02,
       -1.90273847e-03, -4.66364902e-03, -1.04659470e-02,
       -1.56987607e-02, 7.81598594e-03, -2.45997286e-03, -5.50476485e-04,
       -2.49764826e-02, -1.98320113e-02, -8.01672693e-03,
       -1.65926330e-02, -3.58255357e-02, -6.46416913e-04, 1.36281680e-02,
       2.75835283e-02, -3.01749706e-02, -1.20919803e-02, -2.26407629e-02,
       -2.87478231e-03, 6.23583933e-03, 1.33631928e-02, 1.00245662e-02,
       3.01998798e-02, 1.50572713e-02, -1.58480322e-03, 8.72782839e-04,
       2.51830043e-03, -1.05656954e-02, -1.72470380e-02, -2.04765815e-02,
       -2.92181578e-02, 9.86446720e-03, -4.58923401e-04, 2.22807727e-03,
       -4.73834155e-03, -1.29978657e-02, -5.60401799e-03,
       -2.03393772e-02, -4.07417538e-03, -6.42421364e-04,
       -1.07654259e-02, -4.50965203e-03, -1.12449788e-02, 1.09022195e-02,
       -1.39488718e-02, -1.75484903e-02, -3.43575375e-03, 2.37561669e-03,
       -1.57944728e-02, 2.13835086e-03, -1.79740395e-02, -6.91368897e-03,
       -1.25697935e-02, -3.04322690e-02, -2.94244848e-03, 1.24310807e-03,
       3.90858352e-02, 1.15896501e-02, -8.92944541e-03, 5.19678090e-03,
       -2.09362432e-02, 3.33728176e-03, -4.02593194e-03, -2.05322746e-02,
       -4.64885458e-02, 2.39798008e-03, 1.02817575e-02, -2.00733244e-02,
       -1.97967105e-02, -2.34987345e-02, 1.98211558e-02, 1.84478406e-02,
       -5.11545222e-03, -2.22857520e-02, -4.13281331e-03,
       -7.40207173e-03, 7.02262914e-04, -1.62614770e-02, -1.71879865e-02,
       -1.05979731e-02, -2.20587458e-02, -1.95762236e-02,
       -2.91494597e-02, 3.03739868e-02, 2.21518707e-02, -3.50628723e-03,
       3.72503465e-03, -2.46412903e-02, 2.52346005e-02, 1.71828363e-02,
       1.54388044e-02, -4.01317850e-02, -2.01241635e-02, 2.61971145e-03,
       1.66705027e-02, -2.08854675e-02, -1.80895403e-02, 1.04744444e-02,
       1.79481804e-02, 8.44023935e-03, -1.57016553e-02, -3.14106559e-03,
       2.76808767e-03, 3.61128449e-02, -1.22118145e-02, -2.56392732e-02,
       -2.46482808e-03, -5.76179475e-03, -2.69914567e-02,
       -1.43632544e-02, -1.69324465e-02, -4.79467586e-03, 2.52569132e-02,
       -8.53714813e-03, -3.81157137e-02, 3.32851559e-02, 1.82434209e-02,
       2.09365077e-02, -1.29943117e-02, -1.99741703e-02, 4.48551588e-03,
       2.30097156e-02, -3.63728702e-02, -1.44359712e-02, 2.74598412e-02,
       6.48640096e-03, 1.28954668e-02, -1.70483030e-02, -9.12136585e-03,
       -9.78619605e-03, 2.39901920e-03, -3.36891860e-02, -1.14838546e-02,
       1.89819150e-02, 1.21073397e-02, 3.85226589e-03, -1.88653152e-02,
       -2.74172425e-02, -4.11981605e-02, -2.10719346e-03,
       -1.65950693e-02, -9.12380312e-03, -9.29167029e-03,
       -6.73532998e-03, 7.22958008e-03, 1.18299751e-02, -2.84767989e-02,
       -4.45622839e-02, -3.78569849e-02, -1.88167877e-02,
       -1.69542041e-02, 1.81087274e-02, 1.24007463e-02, 1.28124245e-02,
       -5.75139513e-03, -2.17908286e-02, -2.55434662e-02,
       -1.71825886e-02, -2.88176518e-02, -6.11652574e-03, 1.09033408e-02,
       1.77284572e-02, 3.72406770e-03, 4.49337848e-02, -1.87088642e-02,
       -2.93007903e-02, -3.04649584e-02, -2.57016532e-02,
       -5.46236103e-03, -2.31586881e-02, 1.34600429e-02, 2.51511242e-02,
       -1.12024238e-02, 8.61369830e-04, -1.54104577e-02, -3.20830494e-02,
       -7.59863015e-03, -1.38292613e-03, -2.42246091e-02, 2.48358268e-02,
       1.10547580e-02, -1.67619642e-02, 1.16372416e-02, -4.38469183e-03,
       -1.43275820e-02, -2.73422729e-02, 5.30087273e-04, -1.28832208e-02,
       6.92640059e-03, 3.52236466e-03, -2.83248513e-03, -4.62593650e-03,
       -2.12133932e-03, -7.95810856e-03, 6.58294093e-03, -1.01169534e-02,
       -3.38637121e-02, 1.47962365e-02, -3.35141569e-02, -3.13506881e-03,
       1.45935863e-02, 2.50988510e-02, 1.64252631e-02, 1.06379259e-02,
       -1.94524862e-02, 5.91824530e-04, 5.33912703e-03, 1.25672538e-02,
       -4.98320907e-03, -2.24481318e-02, -4.57709277e-04, 2.62631103e-03,
       -2.90747790e-04, -2.41970271e-02, -1.12583190e-02,
       -1.64340180e-03, 1.98192211e-04, 3.16194934e-03, -9.74633079e-03,
       -1.22061726e-02, -6.21977588e-03, -1.75093487e-02,
       -1.85795985e-02, 8.34626378e-04, -1.32893920e-02, 1.23450430e-02,
       2.42310762e-03, 9.26733483e-03, 1.20668812e-02, 1.16904115e-03,
       2.51367106e-03, -1.64398109e-04, 1.28933191e-02, 8.04975443e-03,
       -9.42010991e-03, 4.41895705e-03, -1.45548563e-02, -8.62318929e-03,
       -7.61933811e-03, 6.25583762e-03, 7.42440904e-03, 1.75062846e-03,
       -1.45135894e-02, -1.89028326e-02, -2.92882677e-02,
       -1.72276329e-02, -3.01309046e-03, -1.56845916e-02,
       -2.59321486e-03, 4.68144100e-03, -8.49886681e-04, -3.56207117e-02,
       -8.22159834e-03, -2.54785791e-02, 2.43475707e-03, -4.28078510e-03,
       1.03287154e-03, -2.05222890e-02, -1.72989137e-04, -1.68349117e-03,
       -8.09140690e-03, -9.10999440e-03, -5.15300874e-03,
       -2.58988906e-02, -1.96118727e-02, -1.97569784e-02,
       -6.74655195e-03, -1.74568594e-02, 3.51060904e-03, -2.61812489e-02,
       -1.13595929e-03, 1.75890401e-02, -5.32194180e-03, -1.12456493e-02,
       -5.06753847e-03, -2.61488017e-02, 3.18225985e-03, 3.18542542e-03,
       -1.54338945e-02, -1.59795154e-02, -4.94433641e-02,
       -8.79693497e-03, 2.71533453e-03, 2.15204228e-02, -1.36102792e-02,
       -3.17937173e-02, -3.71947698e-02, -1.27814580e-02,
       -1.18038785e-02, -6.21283390e-02, -2.48113219e-02, 5.32171596e-03,
       1.37378909e-02, -1.94041561e-02, -8.18235055e-03, 8.18255357e-03,
       -1.08639067e-02, -1.63276456e-02, -1.42041286e-02,
       -5.85212000e-03, 8.84438027e-03, 1.33156627e-02, -1.96834709e-02,
       -1.96551438e-02, -1.22760497e-02, -1.02862436e-02, 4.78942506e-03,
       -3.84567305e-04, -1.15449459e-03, 2.69347504e-02, 2.11929902e-02,
       -1.83038712e-02, -2.48453524e-02, -1.70207000e-03,
       -4.53092580e-05, 1.75563060e-02, -2.90192813e-02, -4.17428650e-02,
       -2.77399574e-03, -1.48544274e-03, -2.44051795e-02, 2.06353776e-02,
       4.02779970e-03, -7.66029768e-03, -1.52877113e-02, 1.16909761e-02,
       -6.44707261e-03, -1.25319045e-02, 4.34141606e-03, -5.35883615e-03,
       -3.04674897e-02, 5.22551080e-03, -1.45527897e-02, 1.09902434e-02,
       6.78662444e-03, -5.05677145e-03, 2.83782985e-02, 4.63714125e-03,
       -2.54660156e-02, -2.58834511e-02, -8.51025712e-03, 4.28188918e-03,
       8.26869439e-03, 7.78850541e-03, -5.79155609e-03, 4.80970647e-03,
       1.96853001e-02, -6.94765942e-03, 1.86490528e-02, -1.49454665e-03,
       -2.03075986e-02, -3.55980210e-02, -2.88639814e-02,
       -3.15934233e-03, 1.81724820e-02, 1.31328555e-03, 7.20932055e-03,
       -1.32891843e-02, 4.87286411e-03, -2.48686615e-02, -8.04401562e-03,
       1.39418561e-02, 2.83626299e-02, 4.77411691e-03, -1.10648284e-02,
       -9.68870148e-03, -1.52254980e-02, -3.30399461e-02,
       -1.46901952e-02, -1.41334562e-02, -6.84173498e-03, 2.99970550e-03,
       -4.25239420e-03, 9.56793688e-03, -6.47702813e-03, 3.82384518e-04,
       2.01698788e-03, -1.85383856e-02, 1.56477690e-02, -7.22387433e-03,
       2.13391590e-03, 1.46334870e-02, -3.68091557e-03, 1.15832943e-03,
       4.64805914e-03, -4.87764971e-03, -2.11303420e-02, 6.80835219e-03,
       -3.43652368e-02, -1.24210399e-02, -3.70306820e-02,
       -1.31304488e-02, 3.84383439e-03, 1.84382554e-02, -1.43122831e-02,
       -1.32234283e-02, 8.07245821e-03, -1.30738234e-02, -3.35982591e-02,
       -1.60533153e-02, 1.80456750e-02, 2.18930487e-02, 3.99242062e-03,
       1.66291893e-02, -5.30318473e-04, 5.24490839e-03, -3.97034064e-02,
       -3.44693027e-02, -6.36103144e-03, -3.58316884e-03,
       -2.88062589e-03, 3.32453777e-03, 1.07487142e-02, 9.37145017e-03,
       1.96488593e-02, 1.17701013e-02, -2.42677014e-02, 1.90140381e-02,
       2.04904359e-02, 1.66633017e-02, 2.17918400e-02, -2.05025822e-02,
       -3.81086804e-02, -4.18483373e-03, -1.93616971e-02,
       -1.78216323e-02, -1.59184542e-02, -1.48421125e-02, 5.68187749e-03,
       7.07934797e-03, -1.04505951e-02, -1.33050177e-02, -8.66195711e-04,
       -2.24991757e-02, -1.38430391e-02, -2.86634937e-02,
       -1.02223977e-02, 8.03106278e-03, 8.33046436e-03, -1.16638085e-02,
       -3.19656357e-02, -3.09797819e-04, -5.29742392e-04,
       -2.27041380e-03, 9.68645141e-03, -1.45552605e-02, 4.33672080e-03,
       1.36611741e-02, -3.17835715e-03, -4.71631112e-03, 1.78336855e-02,
       1.67142581e-02, 1.23758269e-02, -6.18455419e-03, -8.32689088e-03,
       1.76561493e-02, 8.59206449e-03, -1.96350047e-05, -3.88986035e-03,
       -4.95053269e-03, -4.34078947e-02, -1.42661054e-02,
       -2.02968065e-02, 4.52041160e-03, 4.43173340e-03, -3.75007652e-03,
       -7.48100318e-03, 1.09831896e-02, 1.78001719e-04, -2.28004390e-03,
       1.97629817e-02, -1.09769413e-02, -1.37942862e-02, -1.28161777e-02,
       -1.04239630e-02, 8.13200418e-03, 1.61624495e-02, 2.01268643e-02,
       -1.65371168e-02, 4.02014609e-03, -1.50021678e-02, 1.32129118e-02,
       4.63459268e-03, -2.45518368e-02, 1.36687756e-02, 3.35575305e-02,
       4.04362977e-02, 1.77652594e-02, 2.49822941e-02, 3.20377536e-02,
       3.83335561e-03, -1.76470876e-02, 4.27977461e-03, -5.14624116e-04,
       9.44283884e-03, -1.04592377e-02, -3.70139256e-02, -2.21526599e-03,
       -7.60865398e-03, -1.64436866e-02, -1.68017223e-02, 1.09874213e-03,
       -2.31907368e-02, 8.54067225e-03, 4.53552790e-03, -2.83600185e-02,
       -1.28503609e-03, 1.26199843e-02, -1.11716622e-02, -3.30531690e-03,
       -2.77311523e-02, 8.37645307e-03, 2.07091272e-02, 2.62619387e-02,
       2.69507039e-02, 1.83586497e-02, 7.35314563e-03, -1.84893385e-02,
       -2.96637751e-02, -1.40097290e-02, 5.02705853e-03, 2.49333866e-02,
       5.57519943e-02, 1.33198239e-02, 3.15184146e-02, 8.53648409e-03,
       -4.22074310e-02, -3.07019018e-02, -1.11850360e-02,
       -2.88619157e-02, -1.53032290e-02, -1.87094267e-02,
       -6.13107765e-03, -1.70776993e-02, 1.29054729e-02, 5.20900358e-03,
       1.08394725e-02, -1.14368415e-02, -5.94155397e-03, -4.48645093e-02,
       -1.12623395e-02, 1.43749313e-02, 1.29059087e-02, 1.18640848e-02,
       1.60454959e-02, 9.53806937e-03, -5.64465707e-04, -2.17489884e-04,
       -4.17974498e-03, -3.70996655e-03, 2.75753578e-03, 3.46701546e-03,
       2.03399383e-03, -2.15422157e-02, -1.02927620e-02, 3.17375758e-03,
       3.30700725e-03, -5.87030826e-03, 5.29206078e-03, 1.50875468e-02,
       7.07045430e-03, 1.06011704e-02, 1.74399521e-02, 1.06432270e-02,
       -3.86442384e-03, 2.96567883e-02, -1.74671095e-02, -1.15517993e-02,
       -7.54455244e-03, 1.24223437e-03, -1.12061426e-02, -3.96723347e-03,
       -3.26914457e-03, -1.25118801e-02, 1.99247827e-03, -2.53158640e-02,
       -6.44024834e-03, -3.43176560e-03, 2.83938926e-02, -7.13747786e-03,
       -7.99381873e-04, 5.81345987e-03, -1.93338059e-02, 1.89072452e-02,
       9.07300320e-03, 1.37899397e-02, -2.11494137e-02, -2.30582012e-03,
       -1.50241964e-02, -6.74283598e-03, -1.62392426e-02,
       -2.28244178e-02, -3.61798005e-03, 2.20835395e-03, 1.68486927e-02,
       2.42174417e-02, 1.37914680e-02, 2.79423199e-03, -9.55097564e-03,
       -1.76090449e-02, -4.31669923e-03, -2.74269027e-03,
       -2.93121431e-02, -2.13057846e-02, -2.97396667e-02, 1.79328211e-02,
       1.07456855e-02, 1.88062601e-02, 2.56515536e-02, -3.04070115e-03,
       1.03339180e-02, 1.36005953e-02, -1.33786863e-03, -3.46099548e-02,
       -1.14889583e-02, 4.82329912e-03, 1.79968849e-02, 2.11492530e-03,
       1.10415211e-02, 7.24727754e-03, -1.82124246e-02, -1.52077135e-02,
       -1.70143787e-02, -1.82522405e-02, -7.86665641e-03,
       -1.01692257e-02, 1.82760041e-02, -1.80879943e-02, -1.65289408e-03,
       2.10961029e-02, 1.26886154e-02, 2.99300603e-03, -6.73707528e-03,
       2.00190656e-02, -2.03355923e-02, -1.95844825e-02, -7.35285273e-03,
       2.39819083e-02, 2.65812948e-02, -4.44259355e-03, -2.41308417e-02,
       -1.88882630e-02, -1.85578279e-02, -1.86954552e-04,
       -1.09062698e-02, 3.91725264e-03, 2.87637021e-02, 2.75851805e-02,
       2.36462839e-02, -2.22252980e-02, -1.16005251e-02, -1.68042090e-02,
       -2.35911086e-02, -3.17817666e-02, -2.45743282e-02,
       -1.71635821e-02, 1.39003582e-02, -7.55798072e-03, 2.36640349e-02,
       3.39907105e-03, 1.64221972e-03, -2.59130243e-02, -3.25749665e-02,
       -2.43220888e-02, 4.56658192e-03, 1.98124908e-02, 3.36615625e-03,
       -5.86928194e-03, -4.73346969e-04, 1.69521160e-02, 3.01052164e-03,
       -3.54790464e-02, -3.82785476e-03, 9.73135140e-03, 2.10078508e-02,
       2.04079505e-02, -1.34899253e-02, -2.88559664e-02, -2.43899636e-02,
       -2.53501125e-02, -8.15865956e-03, -1.57622937e-02, 3.50397755e-03,
       8.58530216e-03, 3.56011093e-03, 7.56869605e-03, -1.42400134e-02,
       -9.19757877e-03, 2.27675517e-03, -1.16234622e-03, -1.73856579e-02,
       2.43575560e-04, 5.80212288e-03, 1.30256983e-02, -1.15249231e-02,
       2.53183232e-03, 5.75147523e-03, -3.13553074e-03, -2.80487142e-03,
       -1.58498250e-02, 4.17998573e-03, 7.56097259e-03, -8.35529156e-03,
       1.90004259e-02, 1.11087635e-02, 3.90946632e-03, 1.20221516e-02,
       -3.62450746e-03, 2.88741221e-03, 4.75636171e-03, 2.46227602e-03,
       1.69939473e-02, -1.06410598e-02, -9.85155907e-03, -3.94482166e-03,
       1.81217529e-02, 1.81419272e-02, -1.36467889e-02, -8.21427722e-03,
       2.60761450e-03, -3.08156032e-02, -3.65943871e-02, 2.83935247e-03,
       1.95303988e-02, 1.31174317e-02, 1.09078409e-02, -8.18393379e-03,
       7.05102831e-03, 2.85666194e-02, 2.11120732e-02, -1.15165077e-02,
       -3.63403023e-03, 1.52757755e-02, 2.01459862e-02, 3.99950752e-03,
       -8.39760154e-03, 1.52890170e-02, 1.65201034e-02, 2.84506800e-03,
       -3.21554206e-02, -1.42864352e-02, 3.43456073e-03, 1.25735803e-02,
       -1.65919177e-04, -8.95103067e-03, -4.31446219e-03,
       -3.29194963e-02, -1.20553588e-02, -1.50095141e-02, 1.37881804e-02,
       -1.30319195e-02, -4.56744619e-02, -1.06544308e-02,
       -1.61032937e-02, -7.01733911e-03, -2.29917150e-02,
       -2.09365338e-02, -2.10599955e-02, -1.13332728e-02,
       -2.47861049e-03, -4.23589051e-02, -1.46433404e-02,
       -4.88838297e-04, 2.14414392e-03, -3.44388857e-02, 9.54708550e-03,
       2.35036407e-02, 5.37784435e-02, -7.21218064e-03, -3.94220948e-02,
       -1.29871164e-02, -1.24080700e-03, 4.50584246e-03, 2.78066588e-03,
       -1.09317787e-02, -1.02848029e-02, 1.88569203e-02, 1.72763853e-03,
       -2.34248471e-02, -1.46096433e-02, -1.63120124e-02,
       -8.27981159e-03, -1.70744285e-02, -2.86235251e-02,
       -4.04814817e-02, -9.82381520e-04, 1.61450952e-02, -1.45732714e-02,
       -1.09840520e-02, -2.43803784e-02, -1.24986218e-02,
       -2.44027060e-02, -2.59674229e-02, -1.77714787e-02, 1.32611475e-03,
       1.02964567e-03, 4.81120963e-03, -2.76664514e-02, -6.35644747e-03,
       -5.97096467e-03, 2.00807899e-02, -1.29706217e-02, -3.98235619e-02,
       1.29828015e-02, 2.81344000e-02, -6.69896079e-04, -1.88315492e-02,
       -1.26353120e-02, -4.13002931e-02, -2.12583262e-02,
       -2.87756342e-02, -1.03059439e-02, 2.63305251e-02, 3.77564318e-02,
       2.89944783e-02, -7.51567306e-03, -2.45874003e-02, 5.66997658e-03,
       3.05134873e-03, -7.44093210e-03, -2.35808305e-02, -8.65111873e-03,
       -2.96600326e-03, 1.10514350e-02, -2.75933072e-02, -2.34380830e-02,
       -4.11420874e-03, 2.32634880e-03, 2.25121547e-02, -2.47605573e-02,
       -3.27214338e-02, 2.00154781e-02, 1.53887859e-02, -2.21985318e-02,
       -1.53957158e-02, -2.57131085e-02, -7.92641751e-03,
       -2.23257095e-02, -1.55954435e-02, 6.28348347e-03, 1.90267153e-02,
       3.03528849e-02, 3.50686163e-03, -1.32631222e-02, -1.46778254e-02,
       7.34663056e-03, 1.29022151e-02, -1.71685836e-03, -1.21992230e-02,
       1.02086924e-02, 7.29548372e-03, 1.00942922e-03, -1.07646920e-02,
       -4.59950324e-03, -7.01725110e-03, 7.67284632e-03, -1.89533215e-02,
       -8.97545274e-03, 2.47402135e-02, 2.10776664e-02, -2.50995206e-03,
       -4.66629304e-02, -3.38653326e-02, -2.34401249e-03, 9.67242476e-03,
       -2.25681905e-02, 5.73703460e-03, -2.09389298e-04, 2.82958671e-02,
       -1.64770056e-02, -8.94330069e-03, -3.81778404e-02,
       -1.22659523e-02, -3.11914063e-03, 1.73239876e-03, 5.89071587e-03,
       2.40422916e-02, 1.29553154e-02, 9.28206369e-03, -2.72962283e-02,
       -2.19626594e-02, 1.96257532e-02, 2.33193170e-02, 5.38135367e-03,
       9.19350144e-03, 8.47065728e-03, 2.79060807e-02, -9.43248998e-03,
       -3.25084068e-02, -3.92444283e-02, -2.51467638e-02, 4.56513255e-04,
       -3.05889770e-02, -1.33484248e-02, -2.36737225e-02, 6.31463761e-03,
       -1.44081777e-02, 6.40238542e-03, -1.10030640e-02, -1.52722988e-02,
       4.37074061e-03, -3.19017353e-03, -5.64873219e-03, -4.42138035e-03,
       -1.10693872e-02, -3.31486738e-03, -3.23902182e-02, 8.83240625e-03,
       2.89340317e-02, 1.80444419e-02, -1.73594374e-02, -6.48678700e-03,
       3.10251443e-03, 2.31117420e-02, -1.92667749e-02, -5.63646667e-03,
       2.83018313e-03, 1.23632653e-02, 3.47079858e-02, 1.46605773e-02,
       -5.00836503e-03, -5.83128212e-03, 8.36705510e-03, -1.97608117e-02,
       -3.99206765e-03, 1.01980204e-02, 9.66973789e-03, -9.87255480e-03,
       -2.26293504e-02, -2.70855594e-02, -5.66018885e-03,
       -2.45387480e-02, -1.59461927e-02, -1.32830022e-02,
       -9.50309681e-04, 2.39874446e-03, -1.68337449e-02, -2.46901959e-02,
       -1.20271342e-02, 5.92760788e-03, -1.75855914e-03, -1.82461571e-02,
       -3.95153416e-03, -1.34134730e-02, 5.31450054e-03, 9.21811070e-03,
       1.22214369e-02, -2.28954083e-03, 1.09192729e-02, -4.20149823e-04,
       -5.96498139e-03, -2.45335791e-02, -2.96344850e-02,
       -1.04246978e-02, 4.01244080e-03, -6.09007059e-03, 2.70353276e-02,
       1.16823614e-02, 9.54412762e-03, -2.89081712e-03, 1.73075069e-02,
       7.83890486e-03, -1.70467906e-02, -1.40589243e-03, 5.20451972e-03,
       9.63181816e-03, -1.10371411e-02, -1.75794978e-02, -2.44000903e-03,
       3.03892395e-03, -1.09244054e-02, -1.81462187e-02, 1.23094181e-02,
       1.21326828e-02, 1.53938569e-02, 1.50792277e-03, -6.34490419e-03,
       8.57136119e-03, -1.46938739e-02, -7.39473244e-03, -4.75166271e-05,
       1.31267207e-02, 1.45962844e-02, -3.18533345e-03, -1.43346507e-02,
       -4.80823405e-03, -1.88438054e-02, 3.95851489e-03, -8.46701488e-03,
       1.58259254e-02, 2.30021346e-02, 2.86818743e-02, 2.06392836e-02,
       8.31797905e-03, 7.27016525e-03, 1.25832539e-02, -2.37542372e-02,
       -2.06176322e-02, -1.74991563e-02, 1.03788702e-02, -2.94336602e-02,
       3.82343866e-03, 5.17948251e-03, 1.31878792e-03, -9.46783461e-03,
       -2.13320814e-02, -1.61347128e-02, 1.48873143e-02, 1.41813774e-02,
       1.66782830e-02, 2.68996954e-02, 8.99764150e-03, -2.84246891e-03,
       -1.84871536e-02, 4.35264286e-04, -2.23883931e-02, -1.94078684e-02,
       -3.20342518e-02, -3.12585235e-02, 2.19936557e-02, 1.87370542e-03,
       5.84142469e-03, 1.34045528e-02, -2.63871253e-02, -1.60119832e-02,
       3.03712599e-02, 2.42899638e-02, 1.02384659e-02, 4.39467914e-02,
       2.35733446e-02, 1.91562809e-02, 4.29797219e-03, -7.16882246e-03,
       -5.66017581e-03, 1.74179655e-02, 1.55951800e-02, 6.87210914e-03,
       1.68831064e-03, -2.07206365e-02, -1.32915508e-02, -1.92942694e-02,
       -4.38295770e-03, -7.47837918e-03, -9.96694900e-03, 2.63462551e-02,
       -2.55733207e-02, 9.84217404e-05, 2.35958258e-04, -1.65835377e-02,
       -6.81068376e-03, -2.66278218e-02, -2.71480568e-02, 2.24776026e-02,
       2.02407259e-02, 1.17349187e-02, -1.25438832e-02, -1.06966561e-02,
       -1.68291274e-02, -1.42393503e-02, -2.71881022e-03,
       -2.60399412e-02, -1.44967074e-02, -2.53766798e-03,
       -1.19955810e-02, 1.69056386e-03, 1.06051592e-02, -3.02366540e-03,
       2.38850154e-02, 2.17245594e-02, 2.81277322e-03, -1.55882761e-02,
       -1.30711272e-02, -1.78155433e-02, -1.11664664e-02,
       -3.41384811e-03, -2.50839256e-02, 5.12655405e-03, -6.22965803e-04,
       -5.73525997e-03, -1.97575148e-03, 4.91993409e-03, 2.43198071e-02,
       -4.20510955e-03, -1.07649378e-02, -1.29292021e-02,
       -6.00026641e-03, 5.77714061e-03, -1.06792180e-02, -2.43448205e-02,
       -2.92741079e-02, 8.25012662e-03, 4.16920194e-03, 2.81635989e-02,
       -1.56615756e-03, 2.83533074e-02, 8.73854011e-03, 1.95225477e-02,
       -6.27738563e-03, -5.88683365e-03, 4.42308374e-02, 2.84170313e-03,
       4.02142899e-03, 4.57203947e-03, 1.72590241e-02, -2.61574686e-02,
       7.66689051e-03, 2.13345625e-02, 3.14676724e-02, -1.79860666e-02,
       -1.74493697e-02, -1.12104332e-02, -1.33622279e-02,
       -2.06494052e-02, -1.00327935e-02, 1.96757335e-02, 8.06444138e-03,
       -1.84192089e-03, -6.64248643e-03, -8.81495327e-03, 1.06457053e-02,
       -5.00309514e-03, -1.77776609e-02, 6.46886230e-03, 9.34526138e-03,
       -1.27079678e-04, -2.59181648e-03, 1.08905267e-02, 4.57243295e-03,
       1.03034331e-02, 7.34272040e-03, 6.11187145e-03, 1.50670018e-02,
       2.65228692e-02, 9.22828540e-03, 1.45385480e-02, 4.39852616e-03,
       2.77118646e-02, 1.61725376e-02, 7.22495327e-03, 2.05061231e-02,
       1.04567893e-02, 2.53683105e-02, -8.86567723e-05, -9.32742655e-03,
       -5.47275320e-02, -4.16182131e-02, -1.98974404e-02,
       -1.44842276e-02, -2.40779645e-03, -2.02350654e-02, 3.73098347e-03,
       1.78592466e-02, -2.00023316e-03, -3.31862196e-02, -1.90039258e-02,
       8.29498097e-03, -3.74076255e-02, -1.65550988e-02, 1.72597542e-02,
       4.53600436e-02, -1.60067389e-03, 1.22479210e-02, -9.71737690e-03,
       -1.54370554e-02, -1.43543612e-02, 5.58109442e-03, 1.63414422e-02,
       -1.25792651e-02, 9.54316650e-03, -6.54967502e-03, 6.11233851e-03,
       2.29060207e-03, 2.09227744e-02, 2.08210456e-03, -2.72040884e-03,
       9.67643596e-03, -3.66782062e-02, -2.04479787e-03, 8.16604123e-03,
       -2.24983413e-03, -4.85762605e-04, -9.39552952e-03,
       -1.87302579e-03, -2.76391245e-02, -2.27674488e-02,
       -1.87286530e-02, 5.09741670e-03, -3.76827386e-03, -2.11438052e-02,
       -1.15573667e-02, -2.36009303e-02, -7.16840290e-03,
       -6.47403020e-03, -1.43942339e-02, -9.56277736e-03, 4.05605277e-03,
       4.55078110e-03, 6.75377576e-03, -1.15796616e-02, 8.83254316e-03,
       -6.04312541e-03, -2.86918343e-03, 4.39483579e-03, 1.34468051e-02,
       1.32881105e-04, -3.28490161e-03, -5.68720559e-03, -1.64537095e-02,
       -2.43820604e-02, -2.44851355e-02, 3.71453702e-03, -3.67837935e-03,
       -5.00004785e-03, -1.89706846e-03, 8.82188231e-03, -1.25000244e-02,
       -2.09698211e-02, 3.83201311e-03, -7.36453850e-03, -1.39821693e-02,
       7.18329428e-03, -6.66984264e-03, 1.33345248e-02, 2.18757819e-02,
       -2.64393892e-02, 7.17629772e-03, -4.67068050e-03, -1.94221754e-02,
       -7.30209937e-03, 2.30289958e-02, 1.51897883e-02, 5.79143735e-03,
       -6.61310460e-03, -4.05296013e-02, -3.01483124e-02,
       -2.33234186e-02, -5.59601188e-03, -1.78841874e-02,
       -1.68667678e-02, 1.02702621e-02, 3.62875350e-02, 1.37814563e-02,
       -1.87443048e-02, -2.80854478e-02, -2.68690772e-02,
       -2.42052805e-02, -2.01718751e-02, 1.88462157e-02, 8.56603589e-03,
       1.04067819e-02, 2.50437967e-02, -3.38009698e-03, -2.59794500e-02,
       -2.95528173e-02, -1.35335252e-02, 7.15464959e-03, 2.05430090e-02,
       8.27912707e-03, 4.79627354e-03, 3.76515575e-02, -6.91425893e-03,
       -3.79504487e-02, -3.83538045e-02, -2.36890595e-02,
       -2.23865476e-03, -1.85727980e-03, 2.64258273e-02, 1.65473800e-02,
       1.62209589e-02, 2.70075840e-03, -1.86398812e-02, -1.52309099e-02,
       -2.59000622e-02, -7.78105669e-03, 2.33718101e-02, 1.85451135e-02,
       -4.91996296e-03, 1.36922980e-02, 2.33542677e-02, 2.18837708e-02,
       -1.67697985e-02, -2.61730485e-04, 6.62253844e-03, -1.70719083e-02,
       -1.75046586e-02, -5.60104148e-03, -3.16200182e-02,
       -9.21634212e-03, -3.03126462e-02, 2.24541556e-02, 1.91424489e-02,
       -1.86261791e-03, -1.51790837e-02, -1.81848127e-02, 2.75828852e-03,
       -2.32018568e-02, -1.70238521e-02, -2.69293459e-03, 2.98559177e-03,
       1.33517925e-02, -1.57066509e-02, -3.02777458e-02, -1.20200077e-03,
       2.32793833e-03, -2.73064040e-02, -2.07135640e-03, -3.22174914e-02,
       1.62243620e-02, 2.22830214e-02, 1.72178317e-02, -1.71440467e-02,
       7.64431385e-03, 1.52462348e-02, -3.58966701e-02, 6.56818179e-03,
       1.66637059e-02, 2.36357711e-02, 2.15060133e-02, -1.93884950e-02,
       -3.72416265e-02, 4.04232135e-03, -3.74563434e-03, 2.60989578e-03,
       5.03252668e-04, -4.05373015e-02, -1.85441226e-02, 1.63728148e-02,
       -2.19767186e-04, -1.77540760e-02, -1.61951333e-02,
       -4.24172357e-02, -1.59953274e-02, -2.23608669e-02,
       -3.19114327e-02, -5.82883088e-03, 1.37910843e-02, 5.83571102e-03,
       -2.80569680e-02, 3.46669964e-02, 1.69123989e-02, -2.05563828e-02,
       -5.91808744e-03, -1.96942706e-02, 8.78705923e-03, 5.48140332e-03,
       -1.18510323e-02, -9.57060046e-03, 1.79223903e-02, 2.23645531e-02,
       3.14030237e-02, 2.65891608e-02, -2.27949452e-02, -8.96860100e-03,
       -2.40129232e-02, -1.08253360e-02, -8.60121567e-03,
       -9.42185242e-03, -3.16688158e-02, -1.31720928e-02,
       -2.50926763e-02, -2.41328776e-02, 5.07963961e-03, 1.59681700e-02,
       -4.81665041e-03, -1.76949948e-02, -1.95334642e-03,
       -2.74112467e-02, -1.33881171e-03, -4.51386441e-03,
       -9.12326109e-03, 2.65399867e-04, -5.18464437e-03, -2.21417267e-02,
       -1.29485615e-02, -1.19166933e-02, 3.87269910e-03, 6.31844485e-03,
       1.63633898e-02, 2.90586124e-03, 5.89059573e-03, -6.50129234e-03,
       -8.60708859e-03, -1.49930818e-02, -1.28434347e-02,
       -1.16745895e-02, -2.21207812e-02, -5.67819411e-03, 1.16712432e-02,
       1.42133022e-02, -2.91181053e-03, 4.92999936e-03, -2.54853293e-02,
       8.08058772e-03, -3.92176211e-02, -5.58741530e-03, 3.21152154e-03,
       -2.85821296e-02, -1.08834654e-02, -3.25166970e-03,
       -2.18359586e-02, 7.55755580e-04, 5.48726693e-03, -1.05366893e-02,
       1.60500277e-02, 8.02361965e-03, -1.86247323e-02, -1.20112179e-02,
       -1.56212859e-02, -9.59532242e-03, -2.22342857e-03, 2.54399492e-03,
       -2.57392437e-03, -5.89355920e-03, 9.20310803e-03, -3.39620896e-02,
       7.91645143e-03, -3.98480380e-03, -3.69308959e-03, -1.11422092e-02,
       -6.44775480e-03, -1.08216912e-03, 6.60968991e-03, 1.01096937e-02,
       -5.87027799e-03, 1.46188103e-02, -4.37501958e-03, -2.86804489e-03,
       -1.25644961e-02, -3.06233466e-02, 1.63049344e-02, 1.88623425e-02,
       5.44237485e-03, -3.26078087e-02, -4.18233573e-02, -6.56034192e-03,
       -2.10404792e-03, -2.87348535e-02, -2.21294407e-02,
       -8.45942460e-03, -1.38809131e-02, -1.12014508e-03,
       -3.43481377e-02, -3.03894486e-02, 1.57967620e-02, 2.10463647e-02,
       -2.31261328e-02, -3.95913124e-02, -4.60160058e-03, 5.57330484e-03,
       9.03374050e-03, -9.49891564e-03, -1.26669568e-03, -1.04152807e-03,
       -2.74944715e-02, -3.35545242e-02, -3.39730009e-02,
       -1.51970773e-03, 2.61535477e-02, 2.52797548e-02, 1.23504568e-02,
       2.45029572e-02, 3.19590047e-02, 1.34002522e-03, -2.76695993e-02,
       -1.13495076e-02, -1.19824018e-02, -2.16637366e-03,
       -8.60327156e-04, -4.12451439e-02, -2.19818000e-02, 6.57312386e-03,
       2.12317239e-02, -1.35258427e-02, -2.68225931e-02, -2.85242517e-02,
       -1.24035394e-02, -1.25359353e-02, -2.47905813e-02, 5.72056184e-03,
       7.99516961e-03, 2.44256966e-02, -7.74330227e-04, -6.54406194e-03,
       4.54867398e-03, 5.73943835e-03, -1.40961139e-02, -2.21098773e-02,
       -1.29036559e-02, 1.66764148e-02, 9.53846984e-03, -8.74836929e-03,
       -7.07627134e-03, -1.81342289e-02, 5.08859474e-03, 2.80306581e-03,
       -9.92676709e-03, -1.70514279e-04, -1.11714806e-02, 1.95599310e-02,
       9.75866860e-04, 4.54214262e-03, -5.87419607e-03, 2.42609787e-03,
       7.06119929e-03, -1.49290729e-02, -1.20073278e-03, -1.08749019e-02,
       -2.58502504e-03, -1.67009924e-02, -8.38463835e-04, 1.09758563e-02,
       1.43496087e-02, -1.57198473e-03, -1.31042972e-02, 1.36506557e-02,
       -9.69667453e-03, -1.69247463e-02, -2.04084832e-02, 1.68806911e-02,
       -3.39086144e-03, 1.19039267e-02, 3.12993117e-02, -1.20416461e-02,
       -1.06900344e-02, -1.39298430e-02, -3.13853333e-03,
       -1.08708320e-02, 3.28506008e-02, 2.71548349e-02, 3.07236356e-03,
       2.11725608e-02, 9.84247401e-03, 2.33645178e-02, -5.75827807e-03,
       -8.76908563e-03, -2.21909676e-03, -5.73899457e-03,
       -1.85357165e-02, -9.08940751e-03, -4.35155965e-02,
       -5.43844029e-02, 2.40193005e-03, -9.73645318e-03, 3.78717632e-05,
       1.70033555e-02, -1.92042775e-02, -2.57556364e-02, 2.11732890e-02,
       9.80199873e-03, -1.29559785e-02, 5.58198430e-03, 4.57288092e-03,
       -6.65410887e-03, 4.29670932e-03, 1.80183966e-02, 1.46655450e-02,
       1.82996057e-02, -1.83428228e-02, -4.57260432e-03, 4.84563736e-03,
       -1.22565366e-02, 2.21480206e-02, 1.13542033e-02, 1.30390311e-02,
       2.72949208e-02, 4.71731350e-02, 2.36557852e-02, 3.27928998e-02,
       -1.98316593e-02, 1.21255470e-02, 1.79513600e-02, -3.39872600e-03,
       -1.39007922e-02, -1.20783942e-02, 3.15870456e-02, 2.49974262e-02,
       -2.75044460e-02, -2.20867936e-02, -1.43233975e-02,
       -2.15488244e-02, -1.58634763e-02, -6.41183183e-03,
       -3.47781577e-03, 1.92896351e-02, -2.11521541e-03, -3.57481390e-02,
       -1.45981070e-02, 7.09857268e-04, -1.62674468e-02, 3.37844924e-03,
       5.20979334e-03, 1.07682664e-02, 2.23397277e-02, 7.31676118e-03,
       3.00632673e-04, -2.49740351e-02, 1.28540825e-02, -1.42475197e-04,
       -3.89085189e-02, -1.41545618e-02, 1.67502780e-02, 3.57833095e-02,
       -4.48226550e-04, 1.40531976e-02, 8.56809132e-03, 4.38808883e-03,
       -3.51351267e-03, -3.97568345e-02, 3.60462908e-03, 7.92738516e-03,
       -1.34522524e-02, -3.14187892e-02, -3.45792025e-02,
       -4.31818403e-02, 5.29400725e-03, -7.61006633e-03, 1.72699224e-02,
       2.35345140e-02, 2.15915646e-02, -3.45162749e-02, -1.17166284e-02,
       -4.42179665e-03, -3.31013016e-02, 5.87205915e-03, 1.41643481e-02,
       3.02858371e-02, -2.29899422e-03, 1.91535465e-02, 1.86174246e-03,
       -3.99090387e-02, -1.18671861e-02, -2.30403375e-02,
       -8.19698256e-03, -1.07996771e-02, -1.72487181e-02, 1.21442191e-02,
       1.99157409e-02, -8.71280208e-03, 1.58619117e-02, 1.57437045e-02,
       -5.44352364e-03, 1.13186184e-02, -2.95288651e-03, -6.94098044e-03,
       6.40132371e-03, -7.67618464e-03, -4.59841229e-02, -2.40393225e-02,
       -1.91565454e-02, -2.81328219e-04, 3.93464323e-03, 2.01517344e-02,
       1.29162036e-02, -5.52267721e-03, -2.31078174e-02, -3.68497856e-02,
       -9.45272762e-03, -1.50716736e-03, 1.30543625e-02, -1.20220017e-02,
       -2.85555259e-03, 1.95633247e-02, 7.34318397e-04, 2.76554795e-03,
       -2.24693622e-02, -1.24676563e-02, -3.23816715e-03, 1.23834880e-02,
       6.68461993e-03, 1.26788073e-04, -7.76817673e-04, 4.92019486e-03,
       -1.52823720e-02, 5.39060822e-03, 1.70651567e-03, 9.75073315e-03,
       1.55015737e-02, -5.93554182e-03, 6.09461684e-04, 2.25990778e-03,
       -1.86509185e-03, -1.00964466e-02, -1.57032236e-02, 5.40177571e-03,
       -7.70107843e-03, -1.55125801e-02, -1.69322379e-02,
       -9.94278118e-03, 8.98151007e-03, -1.22183030e-02, -1.54085290e-02,
       -2.39517987e-02, -3.12082586e-03, -8.84056836e-03, 1.84123423e-02,
       1.11531653e-02, 3.20245884e-03, 1.28020700e-02, -4.51133447e-03,
       -2.28704829e-02, -5.15281828e-03, -8.58382415e-03,
       -3.11896880e-03, 1.54956235e-02, 2.67992858e-02, -6.17830502e-03,
       -4.81125712e-03, -5.73490048e-03, -1.48499124e-02,
       -3.50913196e-03, 1.03575643e-02, -3.30490037e-03, 2.22285837e-02,
       1.46651454e-02, -7.03601399e-03, 8.29413708e-04, 4.22713440e-03,
       -1.37430243e-02, -4.75524319e-03, 1.40950549e-03, -1.90847367e-02,
       1.84954796e-03, -1.87748317e-02, 4.02249582e-03, 1.13609433e-02,
       1.32096196e-02, 1.40404422e-03, -1.21783391e-02, -1.93701945e-02,
       -2.82642227e-02, -9.10798367e-03, -3.67065542e-03, 1.32094333e-02,
       -2.16223765e-03, 2.55405903e-03, -1.72704831e-02, 7.77653744e-03,
       1.65789519e-02, 6.27441145e-03, 7.36292778e-03, -1.73203833e-02,
       -7.22950650e-03, -2.32985173e-03, 1.07227750e-02, 1.27725461e-02,
       1.75093543e-02, 8.12387001e-03, -2.67056953e-02, 1.50952702e-02,
       1.50152184e-02, 6.05404470e-03, 1.65208755e-03, 9.98152606e-03,
       1.22837118e-05, -2.55571958e-02, -3.60811986e-02, -3.14095877e-02,
       -1.58220232e-02, 1.72985643e-02, -7.91321695e-03, -2.09363364e-02,
       2.41611414e-02, 7.63841579e-03, -1.81589033e-02, -1.65492520e-02,
       -3.92782316e-02, -2.62928680e-02, 6.59326371e-03, -2.58981809e-03,
       1.12756789e-02, 2.98847519e-02, 1.56510640e-02, -1.30083058e-02,
       5.45896962e-03, -1.87158789e-02, -7.68677704e-03, 3.39760780e-02,
       -1.08113233e-03, -4.54433408e-04, 1.86042804e-02, 4.44005942e-03,
       -9.20497067e-03, 2.29056478e-02, -6.40386622e-03, 1.78882573e-03,
       4.23563458e-02, 1.86321288e-02, 1.30284876e-02, 8.06104578e-03,
       -2.24999571e-03, -5.55116276e-04, -4.79847379e-03,
       -2.95520891e-02, -2.07240359e-04, -2.12478475e-03, 9.40393656e-03,
       1.85528956e-02, -2.65061297e-03, -1.73540246e-02, 1.05254659e-02,
       1.84784867e-02, 4.27576201e-03, -1.60992295e-02, 1.18246833e-02,
       7.10342545e-03, -1.36924451e-02, 3.11839930e-03, -1.38571914e-02,
       -1.93190033e-04, 7.60045461e-03, -2.68006726e-04, 2.17870791e-02,
       3.48222405e-02, 1.87905822e-02, 3.13325562e-02, -2.79471967e-02,
       -4.30226093e-03, 3.21999751e-02, 5.82672982e-03, -5.20143285e-03,
       -2.79074931e-03, 3.75938602e-02, 1.35059413e-02, -1.62828565e-02,
       -1.65101718e-02, 1.15360944e-02, -2.57357489e-02, -1.07375253e-02,
       -4.34518792e-02, 2.70522330e-02, -2.60041351e-03, 1.30311074e-02,
       -3.76663767e-02, -1.28450841e-02, 8.07220489e-03, -3.30662243e-02,
       -1.20988749e-02, 6.41805679e-03, 2.58619562e-02, -2.84464657e-02,
       -1.46516226e-02, -2.54786387e-02, -8.04536883e-03,
       -4.19703731e-03, -5.16157411e-03, 1.31070036e-02, -3.45444530e-02,
       4.42841761e-02, 1.75089948e-02, 6.85366662e-03, -7.97038339e-03,
       -1.37334233e-02, 1.10819666e-02, -2.49742460e-03, -1.68985073e-02,
       -2.99975313e-02, 2.95749381e-02, -1.06438296e-02, 7.66488491e-03,
       -6.32525282e-03, -1.82737061e-03, -4.62378812e-04,
       -2.29315739e-02, -1.53266154e-02, -2.74604652e-03, 1.57105457e-02,
       -1.95271417e-03, 1.30813022e-03, -8.43324047e-03, 4.38653631e-03,
       -1.11234216e-02, -9.58163943e-03, -4.41504177e-03,
       -2.59551741e-02, -2.05981638e-02, -3.09818797e-02,
       -4.22308361e-03, -3.88898235e-03, -2.30396315e-02,
       -1.19203655e-02, -6.27331086e-04, -3.60520883e-03,
       -2.31279619e-02, 3.65592949e-02, -2.98445066e-03, 4.17670002e-03,
       -1.82647575e-02, -3.58668622e-03, -3.48812453e-02,
       -8.89155362e-03, 1.76475588e-02, -1.93209313e-02, 2.79554352e-02,
       -5.58544230e-03, 3.69242800e-04, -1.73547945e-03, -7.40997400e-03,
       -1.46988677e-02, -4.08740481e-03, 1.05425511e-02, -1.44602740e-02,
       -2.05337368e-02, -2.14962047e-02, -1.43500436e-02,
       -1.54566122e-02, -2.84985639e-02, -1.08376518e-02,
       -2.80679092e-02, -6.61463337e-03, -2.79605761e-02, 5.64880436e-03,
       -1.73152611e-02, -2.54960507e-02, -2.38369089e-02,
       -3.17051634e-03, -1.61228459e-02, -7.08767632e-03,
       -4.39811352e-04, -2.24736463e-02, 9.84814763e-03, -7.94134103e-03,
       -1.15976091e-02, -8.33031628e-03, -1.78376790e-02, 2.04263045e-03,
       -1.27392611e-03, -1.70677807e-03, -4.12247628e-02, 3.42218950e-02,
       1.13538038e-02, -1.99387092e-02, -4.72050020e-03, -1.35614034e-02,
       -5.99937979e-03, -1.93019304e-02, -1.46171562e-02,
       -4.76845093e-02, -1.03014254e-03, 2.43596922e-04, -4.00329800e-03,
       -1.05758049e-02, 2.32868525e-03, -5.15688269e-04, -1.48768502e-03,
       -1.57592222e-02, -2.19784267e-02, 7.01448298e-04, 2.41663982e-03,
       -9.19034472e-04, -1.87009089e-02, -1.58319268e-02,
       -1.45747038e-02, -1.26478327e-02, -2.67753564e-02,
       -5.84702753e-02, 2.49894802e-03, 2.88809482e-02, -2.63627339e-03,
       -4.27961256e-03, -2.78584962e-03, 8.50920659e-03, 1.25343269e-02,
       -4.72074142e-03, 7.10516283e-03, -6.11937325e-03, 3.74276633e-03,
       -1.58346053e-02, -1.69887673e-04, -2.19940040e-02,
       -9.98947397e-03, 1.31948898e-02, 1.18185105e-02, -4.26235497e-02,
       -1.15256337e-02, -4.52024909e-03, -2.19644774e-02,
       -3.17772627e-02, -1.10877939e-02, -1.64130460e-02, 5.97675936e-03,
       2.83127110e-02, -2.96223518e-02, 9.48223099e-03, -4.85585723e-03,
       -9.54132178e-04, -2.07842002e-03, -2.10554115e-02, 5.16764820e-03,
       -1.18419959e-03, 2.25710124e-02, -1.81047618e-02, -2.26233248e-02,
       4.57517942e-03, -1.56559814e-02, -9.35479242e-04, 1.08544882e-02,
       -5.90363890e-03, -8.93269572e-03, 2.06647553e-02, 4.93957195e-03,
       6.33477373e-03, 2.20245644e-02, 5.89589449e-03, 1.61818392e-03,
       1.51419966e-02, -4.50647232e-04, -1.64725315e-02, -1.83839556e-02,
       -6.18811548e-02, -2.88925096e-02, -1.90718379e-02,
       -1.81465398e-03, 1.53530594e-02, -2.10522837e-03, -1.18794367e-02,
       -1.82269290e-02, -1.27816629e-02, -4.11450788e-02,
       -1.06107276e-02, -3.06311380e-02, -7.82626309e-03,
       -7.02375453e-03, 3.85946967e-02, 9.63831693e-03, -2.42243316e-02,
       -1.98871996e-02, -3.91642191e-02, -1.36482613e-02,
       -1.06603587e-02, 2.79850909e-03, 1.01827290e-02, 2.77165342e-02,
       2.55074278e-02, 1.34043545e-02, -4.88284649e-03, -1.08505785e-02,
       9.48878471e-04, -1.55369863e-02, -1.68238822e-02, -1.80326793e-02,
       -2.73686973e-03, -8.53091292e-03, -2.00317353e-02, 2.12826836e-03,
       -3.38869169e-02, -1.58395600e-02, -3.03938482e-02,
       -2.47122422e-02, -8.10145400e-03, 9.34125483e-03, 3.85419023e-03,
       -2.27027982e-02, -1.53104579e-02, -1.75056495e-02, 6.08236017e-03,
       -3.27644274e-02, -1.89173818e-02, -1.19543374e-02, 4.65957494e-03,
       1.21818632e-02, 1.86616406e-02, 1.33274607e-02, -5.44351572e-03,
       2.75672763e-03, -2.81795897e-02, -2.88188756e-02, -2.90129855e-02,
       -2.04287618e-02, 9.40677896e-03, 1.25438124e-02, 1.37578761e-02,
       2.01985072e-02, 1.85987186e-02, -6.87381532e-03, 6.23603491e-03,
       -1.21657010e-02, 1.08379377e-02, 2.21866108e-02, 1.15527166e-02,
       -1.12334834e-02, -4.44141813e-02, -1.38568962e-02,
       -3.15106288e-02, 1.98957995e-02, -1.31858867e-02, 2.24666614e-02,
       3.87287252e-02, 1.29079269e-02, -1.51114305e-03, -3.76995541e-02,
       -2.91788615e-02, 1.11656785e-02, 1.81746688e-02, -8.78961291e-03,
       -2.30767075e-02, 1.31059224e-02, 2.04366446e-02, 9.92439315e-03,
       -2.23418195e-02, -2.25721728e-02, -1.58911515e-02, 7.02761440e-03,
       -1.70038417e-02, -1.71489210e-03, 4.16963324e-02, 2.92647146e-02,
       -7.30645983e-03, -1.50424056e-02, -1.37929143e-02, 2.95556691e-02,
       7.66419386e-03, -1.19960133e-03, 2.85177752e-02, 1.28421467e-02,
       -1.34698730e-02, -2.04132535e-02, -4.61786874e-02,
       -3.17276642e-02, 9.37703624e-03, -7.45403813e-03, -1.13127818e-02,
       1.61814950e-02, 1.06293773e-02, 8.73693358e-03, 5.82773006e-03,
       -1.31794333e-03, -4.30013286e-03, 2.98760855e-03, -7.78507069e-03,
       -1.26139205e-02, -1.26291206e-03, 1.49469655e-02, -6.67831441e-03,
       -4.60978448e-02, -2.29926929e-02, -1.28876669e-02, 3.10970247e-02,
       -2.10653916e-02, -8.65310337e-03, 8.00778344e-03, 4.05711401e-03,
       1.33571436e-03, 1.46259489e-02, 5.77750197e-03, 1.47838276e-02,
       1.07395984e-02, -6.42757956e-03, -5.38685918e-03, 1.75670870e-02,
       4.50709322e-03, -1.76607526e-03, -1.64758768e-02, 1.33901304e-02,
       -3.98643576e-02, -1.11333160e-02, -2.15998404e-02,
       -2.15715524e-02, 6.91474852e-05, 1.80745125e-02, 6.90985285e-03,
       1.50617268e-02, 8.32637865e-03, -2.55648848e-02, -2.38817725e-02,
       -3.43702175e-02, -3.85089219e-02, 5.41871693e-03, -8.84271879e-03,
       4.78097284e-03, 1.26668010e-02, 7.23067485e-03, -3.62985954e-03,
       -2.85278377e-03, -2.39569116e-02, -2.09884774e-02, 5.08120330e-03,
       -6.21131202e-03, 1.07417842e-02, 3.07429750e-02, 4.79937010e-02,
       7.64226168e-03, -2.43093520e-02, -1.88125037e-02, -1.19372243e-02,
       8.41722265e-03, 1.44858072e-02, -4.27558552e-03, -4.36095474e-03,
       4.21821140e-03, -2.17660833e-02, -2.63139214e-02, -3.11226137e-02,
       -2.92318184e-02, 1.76607575e-02, -7.26677058e-03, 2.00586929e-03,
       -1.26032587e-02, -1.74516244e-04, 7.22593162e-04, -1.77018363e-02,
       -3.31214182e-02, -2.26304196e-02, 4.95313550e-04, -3.35280038e-03,
       -2.04486889e-03, 1.94143839e-02, 3.01273856e-02, -1.38291321e-03,
       -9.77979158e-04, -3.08036916e-02, -3.76474969e-02, 1.66547410e-02,
       -8.28357227e-03, 1.36517361e-02, 2.63986494e-02, 2.52523590e-02,
       -8.89670104e-03, 2.70690639e-02, -8.24685115e-03, -4.09996398e-02,
       1.84099395e-02, -9.58465878e-03, -1.59034878e-02, -1.58179179e-02,
       -2.33687297e-03, 1.17888311e-02, 3.12596234e-03, -9.77963489e-03,
       -1.19408185e-03, 1.71046760e-02, -2.15694308e-02, -6.65529631e-03,
       1.41447047e-02, 8.99980590e-03, 1.71011612e-02, -2.46960740e-03,
       -2.84579210e-02, 2.06494750e-03, 3.14145461e-02, -1.38667016e-03,
       -8.35305359e-03, 3.94350663e-03, -1.98889710e-02, 5.59497951e-03,
       2.23073759e-03, -3.39664915e-03, 1.03241680e-02, 2.31233519e-02,
       -4.34966671e-04, 1.19757820e-02, 3.38463336e-02, 2.02087760e-02,
       2.05145665e-02, -1.31810419e-02, -1.60096679e-02, 1.17226653e-02,
       -1.87307503e-03, -1.70470309e-02, -9.63295437e-03, 4.40259092e-03,
       2.91064591e-03, 3.56626511e-03, -2.84741390e-02, -4.11223061e-02,
       -2.37345770e-02, 4.69765655e-04, 3.98864318e-03, 1.56143010e-02,
       -7.76043814e-03, -2.99070459e-02, 7.14943453e-04, -1.72562525e-02,
       -2.51502823e-02, -2.73613110e-02, 3.86895868e-03, -1.35274353e-02,
       -1.86922040e-03, 2.66324393e-02, 2.38306075e-02, 2.05514561e-02,
       -2.79780515e-02, -3.26511003e-02, -1.34633640e-02, 5.58067486e-03,
       2.98150107e-02, 1.08235953e-02, 2.72723939e-02, 1.27018867e-02,
       1.39419306e-02, 2.48993840e-03, 7.31208595e-03, -2.44075581e-02,
       2.69571040e-02, 1.73622649e-02, 5.32446371e-04, 8.06350727e-03,
       -1.52111463e-02, -2.81174909e-02, -8.17612090e-05,
       -1.92361791e-02, -2.32472233e-02, 6.21534360e-04, -1.10816564e-02,
       -2.61968449e-02, 4.97911777e-03, -2.48530861e-02, -4.22227085e-02,
       -2.10136943e-03, -1.45571493e-03, -2.29159798e-02, 7.17473915e-03,
       2.64301822e-02, -1.86724251e-03, 1.78389177e-02, 1.63274386e-03,
       -1.74868666e-02, 6.40668906e-03, 3.35768927e-05, -3.23017612e-02,
       -4.68054168e-06, 3.18609714e-03, -1.36144750e-03, 1.64974555e-02,
       9.75862611e-03, -2.37434860e-02, 1.05672544e-02, -1.45874266e-03,
       -2.48153601e-02, -1.00747952e-02, -1.04110045e-02,
       -4.02227836e-03, 2.00282168e-02, 1.37119126e-02, -1.60646029e-02,
       -1.15538454e-02, -1.25278011e-02, 4.12955938e-04, -1.41639700e-02,
       1.57236587e-02, 3.47049087e-02, 1.41798621e-02, -4.07050177e-02,
       -1.25551093e-02, 1.07895518e-02, -1.24977063e-02, -1.40678873e-02,
       1.20730547e-03, -5.29403239e-03, 5.97591046e-04, 2.30544563e-02,
       3.69339213e-02, -7.39087845e-05, 7.94015918e-03, -1.79407783e-02,
       -8.26021191e-03, -8.30631237e-03, 8.87526944e-03, 1.76402889e-02,
       -1.02179090e-03, -9.36283823e-03, 2.61267368e-02, 1.68614816e-02,
       5.43131167e-03, -1.90860592e-03, 7.11923139e-03, -1.22893807e-02,
       -1.22063011e-02, 3.04685943e-02, -2.14775726e-02, 4.56263162e-02,
       1.07752588e-02, -1.50757199e-02, 2.13683303e-03, 8.06003064e-03,
       -1.53492745e-02, -2.18223762e-02, -1.83449909e-02,
       -5.77173010e-02, 1.61203630e-02, -1.49158873e-02, -8.88674054e-04,
       -1.26413368e-02, -6.56256080e-03, 1.98067129e-02, -7.97634106e-03,
       2.18718126e-02, 1.53044276e-02, 4.33058068e-02, -6.94884127e-03,
       -2.89451294e-02, -2.36016661e-02, 1.52194919e-02, 9.95910354e-03,
       -1.66674741e-02, -1.18075125e-02, -2.37218812e-02, 9.09464806e-03,
       1.82054282e-04, -2.69779731e-02, -1.92033798e-02, -4.58807824e-03,
       -9.05720145e-03, -1.84990466e-02, -8.08772165e-03,
       -3.82814445e-02, 4.25092429e-02, -6.58403663e-03, 4.58845310e-03,
       -1.71989074e-03, -2.56472155e-02, -2.14881971e-02,
       -2.76666116e-02, -8.96587409e-03, -1.30367763e-02, 1.45703228e-02,
       -4.90818173e-03, 2.67229567e-04, -1.90725196e-02, 8.25713202e-03,
       1.44226977e-03, -2.32215766e-02, -2.50908714e-02, -4.20926064e-02,
       2.90700551e-02, 8.82609189e-03, 1.72606949e-03, -9.48000792e-03,
       1.14132240e-02, -9.94503871e-03, -1.66200679e-02, -1.20731518e-02,
       2.85304990e-03, 2.70982757e-02, 9.35232826e-03, 9.90346260e-03,
       -1.98113476e-03, -3.20969778e-03, -1.16558569e-02,
       -2.43004318e-02, -1.10018030e-02, -1.09010097e-02,
       -1.09380698e-02, -1.13036260e-02, -6.36192854e-04,
       -1.45636918e-02, -6.19087834e-03, 9.74433438e-04, 1.67379377e-03,
       -1.91979501e-02, -5.58035746e-02, 3.62532139e-02, 2.04695556e-02,
       -1.89340115e-02, -2.62061134e-02, 6.14260184e-03, -2.93587497e-03,
       -2.48196512e-03, -3.03299446e-03, 1.42409913e-02, -1.61646251e-02,
       -4.04565549e-03, 2.81460257e-03, -2.21346039e-02, 4.94537316e-03,
       5.44913020e-03, -6.40628114e-03, -1.48404595e-02, -4.23091277e-03,
       9.20544611e-04, 1.26410024e-02, -1.74995384e-03, -3.33131030e-02,
       2.45530461e-03, -7.31451111e-03, 2.77730287e-03, -4.87244837e-02,
       -6.49472028e-02, 1.15802223e-02, 2.45785788e-02, -2.57415362e-02,
       -9.79658030e-03, -1.00847585e-02, -1.86110358e-03, 3.57918814e-03,
       -2.15996206e-02, -3.82989980e-02, -1.37563739e-02, 9.98905278e-04,
       -3.11610717e-02, -3.00140888e-03, 1.03814807e-02, 8.25825613e-03,
       3.83739825e-03, -3.23024355e-02, -2.16414202e-02, 1.49846748e-02,
       2.39946954e-02, -1.71487145e-02, -1.70400012e-02, -7.43397465e-03,
       1.96710899e-02, 1.90059450e-02, 1.57841039e-03, 2.21231170e-02,
       -3.28840548e-03, 7.40201445e-03, -2.65234075e-02, -1.95785277e-02,
       -2.77447831e-02, -6.12849928e-03, -6.07573381e-03, 2.97467061e-03,
       -2.25763265e-02, -4.95355856e-03, 5.04216179e-03, -6.60883589e-03,
       -9.98041220e-03, -1.44849131e-02, -1.65050328e-02,
       -3.31305247e-03, 1.62140299e-02, -2.61727488e-03, -1.51198392e-03,
       9.54224635e-03, -1.34596718e-03, -1.46640427e-02, -1.54047087e-02,
       -7.73485564e-03, 5.09189535e-03, 1.36500709e-02, 1.86602008e-02,
       -1.61898322e-02, 7.22605828e-03, 1.28417998e-03, -7.23572029e-03,
       -1.52538461e-03, -1.24613419e-02, -8.02660454e-03,
       -1.06872693e-02, 1.57991759e-02, -6.50161970e-03, 1.45269129e-02,
       1.27977561e-02, -1.19825662e-03, 1.55782010e-02, -1.19350227e-02,
       -1.19546251e-02, -1.18305264e-02, -5.59355393e-02,
       -1.58533882e-02, 1.06611997e-02, 1.83866806e-02, -4.04439261e-03,
       6.86024595e-03, 8.87871534e-03, 9.11644008e-03, 2.51159947e-02,
       7.51287269e-04, -1.85508343e-05, 1.44489706e-02, 3.73434997e-03,
       -1.23413075e-02, 9.67852306e-03, -3.13907862e-02, -3.15880999e-02,
       -3.99937145e-02, -2.96881795e-02, -2.86342110e-03, 6.18032226e-03,
       1.42744873e-02, -1.11463973e-02, 9.55538638e-03, -7.27787009e-03,
       -9.43229068e-03, -4.28815512e-03, 8.36935826e-03, -2.37805652e-03,
       1.31546007e-02, 1.94470361e-02, -1.89316012e-02, -4.31359513e-03,
       1.05097452e-02, 1.82386935e-02, 3.16142254e-02, 8.02768767e-03,
       2.73053674e-03, 2.50226003e-03, 5.14002936e-03, -2.89224498e-02,
       -6.35101879e-03, 1.89157501e-02, 2.44972743e-02, 2.10336987e-02,
       6.32065209e-03, -6.55577099e-03, 6.94759469e-03, 1.37875285e-02,
       -2.92194728e-02, 4.46580444e-03, 1.95936374e-02, -1.90035405e-03,
       -6.35304116e-03, -1.44155007e-02, -1.14894928e-02, 1.38764260e-02,
       7.66242528e-03, -1.84515975e-02, -6.09277654e-03, 1.77557487e-02,
       -1.93165522e-03, -1.78674050e-02, -6.82907738e-03,
       -8.08489509e-03, 6.88783498e-03, 1.00663863e-02, -1.78752635e-02,
       -1.42793134e-02, -2.31757481e-03, 1.45592727e-02, 5.73138800e-03,
       -4.83676745e-03, -1.30276475e-02, 2.77203065e-03, -4.89368686e-04,
       -2.34600976e-02, -7.14482367e-03, 2.21822485e-02, 2.34541520e-02,
       -1.41352089e-02, -1.14657683e-03, -6.17210614e-03, 1.98263545e-02,
       -7.98466057e-03, -6.66936161e-03, -2.84469832e-04,
       -6.34200219e-03, 2.74257339e-03, -2.62058005e-02, -2.21187137e-02,
       -1.12544801e-02, 1.16907414e-02, -6.49038935e-03, -5.14883734e-03,
       -3.51872831e-03, 1.19236680e-02, 1.36425579e-02, 1.20621808e-02,
       6.22184994e-03, 2.39082822e-03, 2.57283002e-02, 1.81728210e-02,
       -5.06117567e-03, -2.39550285e-02, 6.32058689e-03, -8.49698018e-03,
       -2.51994431e-02, -6.47625839e-03, 8.00981652e-03, 1.43844718e-02,
       -2.03580037e-02, -3.00017279e-02, -1.29207373e-02,
       -4.73852782e-03, -9.16702487e-03, 3.43293417e-03, -5.92808705e-03,
       1.69521607e-02, 1.45043852e-02, -9.50272754e-03, -2.49441508e-02,
       -4.08249535e-03, 5.34361741e-03, -3.75280324e-05, -6.89229555e-03,
       1.85552239e-02, -1.03723099e-02, 1.38402767e-02, 2.69553944e-04,
       5.50891040e-03, -9.36667342e-03, -2.24822829e-03, -4.54310270e-04,
       -5.11902478e-03, 5.15568368e-02, 1.72851179e-02, 2.05028020e-02,
       -1.23120402e-03, -3.81008862e-03, -1.09044509e-02,
       -1.74832344e-02, -3.70819564e-03, -2.08346421e-04,
       -4.41518761e-02, -1.61497165e-02, 7.07600033e-03, -2.08717342e-02,
       -2.45911274e-02, -9.37843882e-03, 5.45540592e-04, 1.47077404e-02,
       1.95583533e-02, 1.16416384e-02, 1.19542889e-02, -1.54012453e-03,
       -1.32170226e-02, -3.63534456e-03, -5.89477038e-03,
       -1.88507000e-03, -1.31432875e-03, -1.24153513e-02,
       -2.00650538e-03, -2.96991579e-02, -1.31608555e-02,
       -1.81728285e-02, -1.20734833e-02, 1.34647135e-02, 3.27352807e-02,
       1.76834967e-02, 2.30597537e-02, 2.29865499e-02, 8.45522434e-03,
       9.41665377e-03, 3.60644516e-03, 2.07523257e-02, -7.72219524e-03,
       -6.48785243e-03, -6.83612330e-03, 2.13077292e-03, -2.23741345e-02,
       -8.31396785e-03, 2.27682191e-04, -1.47810532e-02, -2.09187642e-02,
       -8.41113925e-03, -9.54065879e-04, -2.30071112e-03, 2.77589429e-02,
       -6.56938413e-03, -3.30341905e-02, 4.22005262e-03, -6.77045668e-03,
       -3.50751914e-02, -8.35065264e-03, 2.17270013e-02, -8.15817062e-03,
       2.03792099e-03, 1.13300765e-02, 1.72699112e-02, -6.04201807e-03,
       -5.21401828e-03, 3.53085273e-03, -4.66397963e-03, 1.24553470e-02,
       4.50870080e-04, -6.50968915e-03, 2.94595677e-02, 4.25945148e-02,
       2.19914913e-02, -3.58998892e-03, 1.63411209e-03, -3.21345613e-03,
       -1.81700604e-03, -1.33397302e-03, 7.94071611e-03, -4.15923670e-02,
       -1.76571421e-02, -8.29706620e-03, -7.87341222e-03,
       -6.19605090e-03, -4.84063663e-03, -1.96647597e-03,
       -6.32540183e-03, -4.04763920e-03, -1.93349402e-02,
       -5.37394919e-03, -2.05492489e-02, -9.92868748e-03, 1.13019347e-02,
       9.85191856e-03, 8.36000219e-03, -3.31866648e-03, -9.37066134e-03,
       2.59808004e-02, 3.62122431e-02, 2.75278501e-02, 9.60608013e-03,
       2.30027735e-02, -2.88554962e-04, -1.25209242e-02, -8.83251242e-03,
       -1.46604609e-02, 3.67286950e-02, 2.40495596e-02, 1.18473254e-03,
       2.16691159e-02, 2.26413812e-02, -1.45073347e-02, -4.56750160e-03,
       -9.89163388e-03, 8.86482466e-03, 1.75281391e-02, -2.76595503e-02,
       -4.04061414e-02, -1.04688769e-02, 9.90705565e-04, -1.29454350e-02,
       6.55297283e-03, -5.17485524e-03, 2.17012297e-02, 1.77460499e-02,
       -4.62561287e-03, -1.42231304e-02, 1.33585725e-02, -2.37333421e-02,
       -2.03973288e-03, -1.73806529e-02, -1.60767809e-02,
       -1.24603708e-03, 4.39334363e-02, -2.99202539e-02, -2.24971399e-02,
       -6.32530078e-03, -7.46695930e-03, -1.03861978e-02,
       -2.62225838e-03, 1.18418001e-02, 4.30911370e-02, 4.56873178e-02,
       -1.35709057e-02, -1.01425136e-02, -2.18386576e-02,
       -4.09554318e-02, -1.15057137e-02, 5.73361479e-03, 1.53686351e-03,
       1.15051307e-02, -1.96705088e-02, -3.93070467e-02, 8.80202744e-03,
       1.18884526e-03, -2.90235598e-02, -3.09612062e-02, -1.14414450e-02,
       6.11471524e-03, -1.70973912e-02, -3.93260121e-02, -3.78368162e-02,
       1.19335931e-02, 1.35667678e-02, -1.71533991e-02, -3.39485239e-03,
       6.44665351e-03, 1.51299750e-02, 2.42311731e-02, 4.32522548e-03,
       -4.09832224e-02, -1.79323286e-03, -1.04404110e-02,
       -3.31851281e-02, -1.23363370e-02, 4.13778760e-02, 3.44698094e-02,
       2.28781276e-03, -2.76779030e-02, -5.50008984e-03, 7.67465308e-03,
       2.64980458e-02, 4.80062189e-03, -1.70552768e-02, -1.12518808e-02,
       9.14296880e-03, 2.05921084e-02, 7.93135911e-03, 9.12566483e-03,
       6.06511068e-03, 3.10127740e-03, 3.58629134e-03, -1.03210313e-02,
       -4.00046119e-04, -7.24198623e-03, -3.31019354e-03,
       -6.62225485e-02, 3.58104450e-03, -2.07966403e-03, 5.50137786e-03,
       3.52904154e-03, -9.36502684e-03, 3.44230905e-02, 4.37598042e-02,
       3.70872505e-02, 7.49727665e-03, 2.44711637e-02, -1.55708697e-02,
       2.29620188e-02, 1.92765072e-02, 1.09058414e-02, 2.01560557e-02,
       4.03137226e-03, -7.58228917e-03, -4.93601002e-02, -2.78705521e-03,
       -8.39774497e-03, 1.34828119e-02, 2.07873397e-02, 8.92542779e-01 ]
